[
    {
        "brain": [
            [
                [
                    {
                        "bias": -0.9022752829317434,
                        "weights": [
                            0.4652546132605538,
                            0.015595435825544408,
                            -0.21748647082444292,
                            0.3825533552180374,
                            -0.20682964336708,
                            0.07931766207360716,
                            -0.31655508380009095,
                            0.9262913962483161,
                            -0.13842504902468256,
                            -0.08503796492034173,
                            -0.10023928542285603,
                            -0.12013936600997688,
                            -0.5814192981806741,
                            0.08949047956409399,
                            0.55863397272361,
                            0.055300627628192524,
                            -0.1185144198104927,
                            -0.2702764227622557,
                            -0.05526657045332503,
                            -0.05364726057103422,
                            0.02661434562529958,
                            -0.2311921114686652,
                            -0.6205341952498098,
                            0.5312858936492345,
                            0.02728346479380405,
                            0.27059236011754073,
                            0.002766225489004621,
                            -0.16360059735001067,
                            0.01904770576684021,
                            -0.4404595882950263,
                            0.477206713737914,
                            0.04114338240353873,
                            0.1910430014862381,
                            -0.6537085498371797,
                            -0.5537602632343939,
                            0.0016417558727205475,
                            0.9787605795516662,
                            -0.3121660657734636,
                            -0.4292449960301134,
                            -0.8827123819204399,
                            -0.6449942729209309,
                            0.38461252928491546,
                            0.5998510253115648,
                            0.25167124272972236,
                            -0.3922371069303007,
                            -0.4702465884943532,
                            -0.5118113711292529,
                            -0.10083685515901734,
                            0.9574887032039902,
                            0.48180820155430903,
                            -0.6783351087745337,
                            -0.20923033554202475,
                            0.11637689824583675,
                            -1.1126365035493382,
                            0.26178763323504767,
                            0.16216971199577887,
                            -0.6295308605681549,
                            0.6412438189013941,
                            -0.28040283148923867,
                            -0.35166943231330405,
                            0.2761411472576943,
                            0.023467959324179128,
                            -0.4409204500717828,
                            -0.0765839229071956
                        ]
                    }
                ],
                [
                    {
                        "bias": -0.24935858694719634,
                        "weights": [
                            -0.0586901740607056,
                            0.2963205582400011,
                            -0.3008497037043391,
                            0.3561753716299636,
                            -0.1406899329651911,
                            0.31222989566396736,
                            -0.4396496718198326,
                            -0.5521958255703778,
                            0.31652051234223383,
                            -0.18982190746236924,
                            -0.09311378414712065,
                            0.15561150932181556,
                            0.00421923882446697,
                            -0.8207659695380082,
                            0.7920574078465047,
                            0.11266718497414234,
                            -0.016011524178589847,
                            0.6373369082195505,
                            0.20283127325821582,
                            0.35298395018493867,
                            -0.2200221784513973,
                            -0.43475856735086404,
                            0.009899056464917321,
                            0.021609620936112045,
                            -0.4078661519269234,
                            -0.19102207448407468,
                            0.08665301941855638,
                            0.32794226440099067,
                            -0.06668518822754789,
                            0.26839071505882756,
                            -0.5411953933236332,
                            -0.02384069569985671,
                            -0.03921891317316103,
                            0.11831247134546251,
                            -0.09880306812870907,
                            -0.5425231881881424,
                            0.30889136334950223,
                            -0.4622252403363953,
                            0.069781160365725,
                            -0.22420575940411874,
                            -0.09180474182248452,
                            -0.5224264354008068,
                            0.1873521380546029,
                            1.0878126974472764,
                            0.05179345424673207,
                            0.31105922492405724,
                            -0.4294175113514663,
                            0.054237591823965994,
                            -0.2146249045643511,
                            0.39211143472031096,
                            0.06029853900027379,
                            -0.3362788224746932,
                            -0.2861150356386347,
                            0.8690853283814844,
                            0.2082139207507182,
                            0.16901473881616857,
                            0.22334526958211134,
                            0.038216630308763225,
                            -0.3172965685559014,
                            0.7868206462219574,
                            0.06067968415547564,
                            0.24342528180590495,
                            -0.18258494542103967,
                            -0.08409851682230916
                        ]
                    }
                ],
                [
                    {
                        "bias": -0.4487682763508656,
                        "weights": [
                            -0.26879923648834636,
                            -0.022814038806616022,
                            -0.479485659318821,
                            0.1827009447806377,
                            0.6070451974833905,
                            -0.20265224956474817,
                            -0.5511151662144743,
                            0.21311756447567326,
                            -0.1340529476432899,
                            0.2658163774562182,
                            -0.2115878105769687,
                            -0.25865372151953825,
                            -0.2849818233354763,
                            0.42110368564087425,
                            -0.4941022689102256,
                            -0.47786398398719104,
                            0.012523366084810162,
                            -0.13936434968346836,
                            -0.22095845626519472,
                            -0.03723325437977003,
                            -0.21210699771540367,
                            -0.17451450774754837,
                            0.19033327500847677,
                            0.4381413059102047,
                            0.17955965695646559,
                            0.5442099315065242,
                            -0.24992608675542574,
                            0.20012396282037206,
                            -1.020577829241386,
                            0.08635192976868149,
                            -0.016139654963124597,
                            0.22113691127195675,
                            -0.6222336296590347,
                            -0.07051410023926878,
                            0.44264986309689364,
                            -0.29865291532097454,
                            -0.23583706965382287,
                            -0.5408428888853879,
                            -0.7483541133194672,
                            -0.3552633195139474,
                            -0.11953987868350661,
                            0.3284948558425454,
                            -0.12929225481989687,
                            0.1519106567468779,
                            -0.27608106826883216,
                            0.3128480706517462,
                            -0.13796940973704702,
                            -0.3947910425473814,
                            -0.3414198668015516,
                            0.18092630711416172,
                            -0.6013879815632998,
                            0.14266289034798238,
                            -0.29899822846294893,
                            -0.41541561296391943,
                            0.16584620029405986,
                            -0.20542439209076535,
                            0.1088188674950351,
                            -0.2853018026956413,
                            -0.16172929307879835,
                            -0.4978726117223529,
                            -0.5171784301684569,
                            -0.21200557349431062,
                            -0.2528584340604876,
                            0.6674675611472478
                        ]
                    }
                ],
                [
                    {
                        "bias": -0.16643046447020848,
                        "weights": [
                            0.6390990168031142,
                            -0.6061720744621821,
                            -0.19002701895459367,
                            -0.20596953809622254,
                            0.09279481394271055,
                            -0.09064625517947887,
                            -0.11754139516624655,
                            -0.4925599794412541,
                            0.039362280542237366,
                            0.4887126627030826,
                            0.4602866603999196,
                            0.441518853042802,
                            0.005483569008078838,
                            0.23124498272821717,
                            -0.1473754858527827,
                            0.07430913309583982,
                            0.28616095149583554,
                            0.14634610143533391,
                            -0.0036045903298660793,
                            -0.09549835677198854,
                            0.8935225369285246,
                            -0.5973459038332861,
                            -0.04152561638116556,
                            0.2541180726992824,
                            -0.17340947940422108,
                            0.20223347105539657,
                            -0.5707759768647902,
                            -0.21373091241629283,
                            0.1658727442484841,
                            0.07174676187244179,
                            -0.02066570619172126,
                            -0.12802098016278698,
                            0.3001370130969029,
                            -0.4741331971049988,
                            -0.6502306151197881,
                            0.19102724774111096,
                            0.13650448522397815,
                            -0.7696840417429458,
                            0.0659625195847437,
                            -0.12909220672634064,
                            0.2918108553359142,
                            -0.003011680861883977,
                            0.2827723046833383,
                            0.975065331132233,
                            0.715391793890818,
                            -0.6917598387193125,
                            -0.13790379607162415,
                            0.08033164158244403,
                            0.2238368693789127,
                            0.6174063830681267,
                            -0.2982717652271632,
                            -0.31139344739951985,
                            -0.07358227864403707,
                            0.12892805323689954,
                            1.3190301360922698,
                            0.13623456963599778,
                            -0.11077532117542808,
                            0.19858070299219516,
                            -0.05293898655732009,
                            -0.07410430792106336,
                            0.08598086880480385,
                            0.012339505074801183,
                            0.8725744114468317,
                            -0.25668824783776484
                        ]
                    }
                ],
                [
                    {
                        "bias": -0.5328729961549017,
                        "weights": [
                            -0.14797323901352977,
                            -0.5455023467238237,
                            -0.7569473739967917,
                            0.6458928174229499,
                            0.4362146742583451,
                            0.4172591149238212,
                            -0.42101412190307763,
                            0.4310718757109142,
                            0.19894962166254687,
                            0.2180155002036836,
                            -0.47315836247156834,
                            -0.07762230870034921,
                            -0.12500240548618444,
                            0.29092523136149456,
                            -0.1510992742245837,
                            0.2192246371299747,
                            -0.7153077558772276,
                            0.3163491828829085,
                            0.5171697647025859,
                            0.26508169446415686,
                            0.3765608549357158,
                            -0.061139963504419956,
                            -0.2327185997291997,
                            -0.7326223401637371,
                            -0.40057146118032333,
                            -0.11674974422582578,
                            0.2696267779052573,
                            -0.11511145562829084,
                            -0.0843277298332513,
                            0.23620182796724104,
                            -0.12003567561955641,
                            0.00928001405903137,
                            0.4909490036435936,
                            0.09224330884478808,
                            -0.06863417755532117,
                            0.2765493137738592,
                            0.3642789490204288,
                            0.10885880403406983,
                            0.033754568755930886,
                            0.0062007781536905305,
                            0.9629440651330622,
                            0.9394884601505901,
                            -0.04090824281579132,
                            -0.2280160342504317,
                            -0.1555610786420969,
                            -0.5124304048778675,
                            0.6781677822110073,
                            -0.36213825400179633,
                            0.3637683147162513,
                            0.10119482510856644,
                            0.15405367003648407,
                            0.1765422512791859,
                            0.590986802196088,
                            0.6273692591418142,
                            0.597096046528912,
                            0.020438510152524705,
                            -0.11910020528845372,
                            0.12962718463623568,
                            0.2757475780236773,
                            -0.10807747934005589,
                            0.0516127765654708,
                            0.5313017605828784,
                            -0.6642231874022552,
                            0.34442536129539536
                        ]
                    }
                ],
                [
                    {
                        "bias": -0.17788182226116148,
                        "weights": [
                            0.7436171536496956,
                            0.17636530140680512,
                            0.5313852088641877,
                            0.19033678415601638,
                            -0.662807664459155,
                            -0.07860265848343954,
                            0.2866869768609339,
                            0.793699313755174,
                            -0.4676659827152979,
                            0.07255125143828405,
                            -0.1750745309566099,
                            0.5263364410236503,
                            -0.05642584736865808,
                            -0.3141266470702091,
                            0.2980154201581595,
                            0.8895927566084014,
                            -0.16293597441275384,
                            0.18263246848274223,
                            -0.11575937603692019,
                            0.15971452293029859,
                            0.16529541086909316,
                            -0.24282691754824773,
                            0.005337312772232393,
                            0.17241915011006273,
                            -0.138574483955577,
                            0.16008320878441104,
                            -0.4481215152094631,
                            0.3219691939844317,
                            -0.4046386118752194,
                            -0.12647401444879025,
                            0.10245182200535531,
                            -0.683116722202784,
                            -0.1270055884402974,
                            -0.5639259213051279,
                            -0.9039755192237208,
                            -0.27880370836271773,
                            -0.19456713569650008,
                            0.1517229645418123,
                            -0.16456934933269068,
                            0.2651637750268025,
                            -0.7919771056928283,
                            -0.3688880775527001,
                            -0.05156279003001946,
                            -0.13401773549681253,
                            -0.7237430973024079,
                            0.39813752706849487,
                            0.030598639708694753,
                            0.2040833918976909,
                            0.45284409670884945,
                            -0.027161808012897033,
                            0.2399691727078447,
                            -0.23305857423853996,
                            -0.4052673825892736,
                            -0.015542733606956976,
                            -0.9338894197394895,
                            -0.05980631846639561,
                            0.282442412402117,
                            0.5488765458849176,
                            -0.5052325677378938,
                            -0.11361920082808664,
                            -1.3818950454406584,
                            0.005202543192514016,
                            -0.4370106212598107,
                            -0.24859742484105554
                        ]
                    }
                ],
                [
                    {
                        "bias": 0.06791877672413835,
                        "weights": [
                            0.31368263602627905,
                            -0.3590204942906776,
                            0.5239575810271688,
                            -0.4205678742659884,
                            0.008536968151812716,
                            -0.7960910912414455,
                            -0.27324550911926143,
                            0.11634213806707991,
                            -0.08184077011623647,
                            0.2369074308681249,
                            -0.05706693486523608,
                            -0.03577512030003077,
                            0.0949475542827106,
                            0.4705263620611056,
                            0.20357927834906903,
                            -1.0466702367339353,
                            -0.1280267481201105,
                            -0.0361242737325909,
                            -0.26892177881420437,
                            -0.39919892886329034,
                            0.1983539309243315,
                            0.44777442764286707,
                            0.3590903139189514,
                            0.6893769161341304,
                            0.1582570501679925,
                            0.2077685644131055,
                            0.13250339774723394,
                            0.02135451959154283,
                            0.28795983069391545,
                            0.02445073010117461,
                            0.3874405888514387,
                            0.07318953939183474,
                            -0.3576713145860276,
                            0.4187308921898752,
                            0.462554039927289,
                            -0.7150761832811263,
                            -0.25086756014098993,
                            0.29118148117444503,
                            0.12788005947413503,
                            -0.2999289427393253,
                            0.19091678785650465,
                            -0.0455816734110854,
                            -0.14590321783944454,
                            0.10175390747311774,
                            -0.18915422769191906,
                            -0.2327828360418694,
                            0.5079990541914877,
                            0.27261095137305125,
                            0.7000212634961634,
                            0.37742252806322735,
                            -0.39352263028074974,
                            -0.2617145380775003,
                            0.17210379807251105,
                            0.547764343898276,
                            0.07623430989402556,
                            0.42459648651667864,
                            0.3202767005028151,
                            0.21092366031084173,
                            0.36218000104894255,
                            -0.1758948711056962,
                            -0.04600417357238533,
                            0.023908576291692754,
                            0.3621687423740928,
                            0.2837281435168184
                        ]
                    }
                ],
                [
                    {
                        "bias": -0.36002124649531486,
                        "weights": [
                            -0.4027564947895673,
                            0.47737508430127346,
                            -0.1500027307488656,
                            0.8353236286254673,
                            -0.26108237646015486,
                            -0.018579924144348108,
                            0.48811268919960554,
                            0.27471840298194306,
                            0.17958663475250888,
                            0.6528412942431255,
                            -0.09704985277656397,
                            -0.4212814248173803,
                            -0.6095892320506218,
                            0.2939518016171058,
                            -1.019226308385262,
                            -0.2159584892414661,
                            0.49786452149899185,
                            0.17141998127233007,
                            0.5161915463169372,
                            -0.06430497928819338,
                            -0.20975115715155326,
                            0.21064379213180617,
                            0.6034774162348792,
                            -0.5485554696846312,
                            0.13322686800908315,
                            0.017151143323901632,
                            0.519576654986147,
                            -0.18437888495039545,
                            -0.5833632792052851,
                            -0.5260561250876801,
                            -0.44011126278998086,
                            -0.13214712798385286,
                            0.6029534207333893,
                            0.5654160139640647,
                            0.18894239552207698,
                            -0.3437336447131806,
                            -0.40102716017298146,
                            -0.04441472387185242,
                            0.5894237266895905,
                            -0.5562183413968901,
                            -0.45767895377782675,
                            0.04584779215166071,
                            0.36155155177971054,
                            0.4206587479655351,
                            -1.1742139778256362,
                            -0.5918846547132152,
                            0.12060471200180448,
                            0.7547411851694352,
                            -0.11508066999693162,
                            0.6361838961731472,
                            -0.1680216870289487,
                            0.18213090900919357,
                            0.04901113990592161,
                            0.03446119565471846,
                            -0.3198666721788416,
                            -0.2846370779429209,
                            0.128743504466261,
                            0.020915707935356468,
                            0.2654466316078618,
                            0.32369784646090666,
                            -0.4516352235251058,
                            0.08459485222699109,
                            0.28588415067647577,
                            0.7411504011983671
                        ]
                    }
                ],
                [
                    {
                        "bias": -0.21400283075146284,
                        "weights": [
                            -0.14589688823345215,
                            0.2782201912930711,
                            0.039363209268148146,
                            -0.5483489265327204,
                            -0.8250527419610368,
                            -0.624057588555285,
                            -0.0896229354437962,
                            -0.19427735086125134,
                            -0.6314509525989644,
                            0.16700637552143707,
                            0.7794198717408727,
                            -0.24203220717126464,
                            0.2958763786839925,
                            -0.06453509216725706,
                            -0.4660243601147937,
                            -0.0131505628993327,
                            0.03551797305351776,
                            -0.4357739433232121,
                            -0.7729820161533829,
                            -0.07050172142681425,
                            0.2749445324228162,
                            0.0738992330661032,
                            -0.3321353183617483,
                            0.4973426457941691,
                            0.22009477053414025,
                            -0.03593746711526539,
                            -0.09282519816715427,
                            0.7119541543569394,
                            -0.6203911275985023,
                            0.1747374794781561,
                            -0.2562232976750056,
                            0.9764872514003046,
                            0.27469842739732897,
                            0.2722295012000695,
                            0.2059608633105478,
                            0.32085429857767933,
                            0.5599557787237216,
                            -0.4577741863428386,
                            0.05747048113791647,
                            -0.4762642062938717,
                            0.11711243096324589,
                            0.2614197084774419,
                            -0.09617053191287729,
                            0.08986255775006409,
                            -0.14483587698645456,
                            -0.08972095491952242,
                            -0.050703195458539095,
                            0.05273259431795784,
                            -0.03172203586809463,
                            -0.1549192334481072,
                            -0.16324980557723315,
                            1.033004294573465,
                            0.000946070833586498,
                            -0.043591047432118314,
                            0.21888606985950565,
                            -0.18911499617207642,
                            0.9953347178834252,
                            0.02337006101667561,
                            0.3541060731857943,
                            0.12224622907833621,
                            -0.2974344290431192,
                            -0.3915536427653141,
                            0.019322371474541036,
                            0.13241889496493378
                        ]
                    }
                ],
                [
                    {
                        "bias": -0.20006768825383225,
                        "weights": [
                            0.12924816025174674,
                            -0.10457537757243415,
                            0.2999019191950267,
                            0.3552996451102288,
                            0.07199300849227049,
                            -0.14979598781832695,
                            0.1349065189178391,
                            0.42211759165030827,
                            -0.4800212688099804,
                            0.11732443121877788,
                            -0.23233768570380858,
                            -0.4504859286038135,
                            0.03833284310668506,
                            0.011163647820034553,
                            -0.8388002052172173,
                            0.08281469088830355,
                            -0.6050717575375515,
                            -0.04131822320107071,
                            -0.10084689780218503,
                            0.26828423894782955,
                            0.8948364998599271,
                            -0.07770792977470917,
                            0.06340890298381063,
                            0.20108382402700406,
                            -0.5661982732796196,
                            0.09774481330198324,
                            -0.4478557417171693,
                            -0.249208836362188,
                            -0.43720600112113744,
                            0.11423593857379667,
                            0.6430289194016713,
                            0.16797189603463733,
                            0.07862160629725223,
                            -0.6794141476576048,
                            0.4430780325718384,
                            0.4630033966689672,
                            -0.291205189646388,
                            -0.19716523135477607,
                            -0.5078119891656374,
                            -1.2462396992545746,
                            0.08497142076709999,
                            -0.40381203291833784,
                            -0.41009546100753047,
                            0.43913851814100824,
                            -0.8024986988674049,
                            0.36154263730638087,
                            -0.597169284702364,
                            -0.16927513673398287,
                            -0.7804849697162457,
                            0.1357379959475599,
                            0.5152368592787353,
                            0.059299070021017815,
                            0.19538493123434553,
                            0.40964558290407277,
                            0.5913983282348187,
                            -0.1480908503695536,
                            0.1012695254968792,
                            -0.03156197298930468,
                            -0.3778753782679777,
                            0.5465938610422447,
                            -0.7332145178324273,
                            0.022659641638817483,
                            0.47122474367790557,
                            0.09984522836888772
                        ]
                    }
                ],
                [
                    {
                        "bias": -0.25093675526295134,
                        "weights": [
                            -0.7130627419027245,
                            -0.6691659258830003,
                            -0.4015529399444317,
                            0.16108515163973336,
                            0.3273330653931114,
                            -0.41634746008323253,
                            -0.12358273445672378,
                            -1.106657153288272,
                            0.12300078605959101,
                            0.1584401542817221,
                            0.5245309248265778,
                            -0.27087272347630803,
                            -0.21606187826114473,
                            0.20857855715010085,
                            -0.36565492189687415,
                            0.033236592788780085,
                            -0.5365862848955553,
                            0.40536028179289607,
                            0.01087302283662572,
                            -0.5712217503928975,
                            -0.45770757788190986,
                            0.3878596060888161,
                            0.1644148025526792,
                            0.29290789506261977,
                            -0.13098671993503785,
                            0.021090370380974676,
                            -0.10838237787312843,
                            -0.3731159837043951,
                            0.6121722075537576,
                            0.29468279736548914,
                            0.13438006975490516,
                            0.039967897331525726,
                            -0.19660643250499463,
                            0.32140405374277714,
                            0.11340952214724709,
                            0.026091967068205036,
                            0.020743500795196133,
                            0.43204637814888,
                            0.23324023601721727,
                            0.3298062498890599,
                            -0.08943028106247068,
                            0.17659707916736495,
                            0.6604065510806439,
                            -0.354035137397425,
                            -0.3633777106587825,
                            -0.0963283241799557,
                            -0.517955637693561,
                            0.653177468527888,
                            1.0479726788153692,
                            -0.1483963395517149,
                            0.20045503521100622,
                            0.5149362839160151,
                            0.5315794503709713,
                            -0.08039476547372643,
                            0.5882951665059395,
                            0.33679827415760755,
                            0.25928145099803895,
                            0.05562455122212031,
                            0.4801566650207522,
                            0.6365250819676918,
                            -0.2239166921661293,
                            -0.045596123087346216,
                            0.12249321876746216,
                            0.49221358080108396
                        ]
                    }
                ],
                [
                    {
                        "bias": -0.6445298769470253,
                        "weights": [
                            -0.21855225702838438,
                            -1.0235153764731968,
                            -0.16839990455220838,
                            -0.4106578135388463,
                            -0.17076841555999658,
                            0.0760947852158254,
                            -0.23395687294164813,
                            0.12716535430079218,
                            0.1733403447042594,
                            0.0918902406797217,
                            -0.5538085178249733,
                            0.355780783155332,
                            0.006804502402689,
                            0.8512526729645686,
                            1.1634651685806314,
                            -0.09198890146023843,
                            -0.8661792408686404,
                            -0.3097103922367324,
                            -0.3933262201216203,
                            0.1475197619364986,
                            0.05043653608822037,
                            0.3454736392926191,
                            0.25479135837546374,
                            -0.716880352609057,
                            0.48622352619696385,
                            -0.03934624751868873,
                            0.3011277303310353,
                            0.04357402869996103,
                            0.30069475725040057,
                            0.21908036887086954,
                            0.22640409757900787,
                            0.33866777881432264,
                            -0.42461353564133025,
                            -0.01183525262779697,
                            -0.5434724020011995,
                            -0.20678873129888942,
                            0.09886991907182664,
                            0.19853837463766497,
                            -0.1944471911603176,
                            -0.2835877400475589,
                            0.477815672829197,
                            -0.5472956744369678,
                            -0.15458879300753173,
                            0.8989600913947118,
                            0.23852726476609412,
                            -0.3943521553084675,
                            0.4103034631145969,
                            0.20614007815645047,
                            0.2846223175630882,
                            0.454881199912282,
                            -0.09025251485603639,
                            -0.0404240344879152,
                            0.6263671093493344,
                            0.20327249216528734,
                            -0.3117304782878306,
                            0.30332850389067184,
                            0.47419488368597323,
                            0.1984798336244884,
                            -0.033529685144656256,
                            -0.09847496471277088,
                            0.1642680341418721,
                            0.3819054492491978,
                            -0.21025981893484744,
                            -0.18201033823981197
                        ]
                    }
                ],
                [
                    {
                        "bias": -0.7333188180968512,
                        "weights": [
                            0.0820805633467523,
                            -0.31011151215684346,
                            -0.06950794136581195,
                            -0.3583455775864425,
                            -0.4258098045389095,
                            -0.36264326583183326,
                            0.5417456497099166,
                            0.3456236007513489,
                            0.3284485869245724,
                            -0.7389045785946385,
                            0.14311759450691253,
                            0.8750256580219481,
                            0.21345202616093972,
                            -0.1639052370860919,
                            -0.09626103824973334,
                            0.3576693538864261,
                            0.0017168405773222057,
                            -0.1687809376858658,
                            0.449893973858706,
                            0.31007221794800605,
                            -1.0907661354198317,
                            -0.36335657741852956,
                            -0.23313100228379247,
                            0.20147410509541677,
                            -0.7572335412278669,
                            0.053148322100425964,
                            -0.2234174084318363,
                            -0.23048703883067118,
                            -0.07316863813817018,
                            -0.588364689410212,
                            -0.3571723814063942,
                            0.19066283745605145,
                            -0.34080032734633964,
                            -0.05244611288663085,
                            -0.09593741656612001,
                            -0.33924015172087985,
                            -0.3638461891474585,
                            -0.19530227447332563,
                            -0.502780783257785,
                            -0.09959760405932751,
                            0.22778672975698527,
                            0.07198884301737413,
                            0.5925747849734271,
                            0.09580887312480973,
                            -0.4286072913218754,
                            -0.03210281978136843,
                            -0.32367471519391505,
                            0.050438284422220425,
                            -0.5463146391381931,
                            0.20472625680943515,
                            -0.27183262392189844,
                            0.24487407785407458,
                            -0.06923271394674008,
                            0.32712684233294964,
                            -0.16404234610939883,
                            0.686741170045344,
                            0.22565654181751374,
                            0.5616636390625435,
                            -0.38118873133667586,
                            0.0056477386311766025,
                            -0.011868362094695568,
                            0.7876911728826942,
                            -0.15309053967756225,
                            0.35972104504311336
                        ]
                    }
                ],
                [
                    {
                        "bias": -0.38874856343682473,
                        "weights": [
                            0.481587112110598,
                            -0.31226508793436347,
                            0.9358354867044438,
                            -0.2639665071682309,
                            0.22548139910014378,
                            -0.6693819498484223,
                            0.3007179698035928,
                            0.441017632990717,
                            0.33249476089921953,
                            -0.013099960443719794,
                            0.23341978117715045,
                            -0.5839521050303276,
                            -0.012527318095917601,
                            -0.48839468560681254,
                            0.47720219710529393,
                            0.19943145303733592,
                            -0.2354085284709099,
                            0.2924400693533742,
                            0.4178284487306555,
                            -0.08431712291625601,
                            0.3597343202398082,
                            0.24197427750234174,
                            0.3764260610958785,
                            -0.09784505467735315,
                            -0.27411730055618927,
                            -0.03513866083120443,
                            -0.09383843109555676,
                            0.17026388349552343,
                            -0.10238068766020732,
                            -0.37065653317326,
                            0.2962156651841786,
                            -0.3873338408225633,
                            -0.35139352737924984,
                            -0.3812209983026333,
                            -0.42857090412814336,
                            -0.24097354250638855,
                            0.06351578870048731,
                            -0.20945043441648964,
                            -0.19683928332527945,
                            -0.12395861979402881,
                            0.07927900233465042,
                            -0.738634925883219,
                            0.6942038022579207,
                            0.26233619628587823,
                            0.09080522676917292,
                            0.027276103166645433,
                            0.2514406555503676,
                            0.19279615440374387,
                            -0.13762557083604546,
                            0.19401519683495116,
                            0.2516389824100477,
                            -0.326391423928194,
                            -0.1319431780067655,
                            0.4062788304378549,
                            0.40767512472349515,
                            -0.5910528793372644,
                            0.7961250268095079,
                            -0.474975410898323,
                            0.6547592731811182,
                            -0.4466003371443191,
                            0.0028787641317506493,
                            -0.46413607712941385,
                            -0.0059835512346106375,
                            0.43392090267865935
                        ]
                    }
                ],
                [
                    {
                        "bias": -0.05714476161011947,
                        "weights": [
                            -1.0392801517220773,
                            0.08182002343259144,
                            -0.3129040372998584,
                            0.07648248386466251,
                            0.18428541829014453,
                            0.05829840886351992,
                            0.07870909937402895,
                            0.3283336733941054,
                            -0.373105342441525,
                            0.5512609001772261,
                            0.3207618055892599,
                            0.38886725314870985,
                            0.7382977358478893,
                            0.1699262932425642,
                            0.7049362424105496,
                            -0.07160858058889719,
                            -0.15948019786113146,
                            0.3828170841599397,
                            -0.5568693207793185,
                            0.14279573841929882,
                            -0.14826143998490804,
                            -0.5717409212977376,
                            0.0545217553307261,
                            -0.9156555155878205,
                            0.16829188048349847,
                            -0.31542441612667205,
                            0.29855461970892416,
                            0.7686470325379547,
                            0.1667980947968174,
                            0.5700876654060981,
                            -0.11871869230477027,
                            -0.3475980710633419,
                            -0.2769712022958237,
                            0.23134529559367148,
                            0.6318571781877764,
                            -0.28580129768917134,
                            -0.3626412121154221,
                            0.6031818798662051,
                            0.7958420897419951,
                            -0.19769166348309825,
                            0.20573862950500343,
                            0.43440150267060695,
                            -0.2170166717669975,
                            0.398184498749899,
                            -0.26421078843531626,
                            -0.05679193438862107,
                            -0.2506883957335992,
                            0.03659770712593505,
                            -0.4689397757159159,
                            -0.10514882157241633,
                            -0.45914549438124064,
                            0.18977247485955753,
                            0.0681530097391938,
                            -0.20446123515900536,
                            -0.779416015125553,
                            -0.08906745905062749,
                            0.1752333286345557,
                            -0.059346828941104955,
                            0.19282354280111325,
                            0.5419002463232447,
                            0.4649044109300006,
                            -0.23032702216536644,
                            0.30302825985997794,
                            0.129464893366595
                        ]
                    }
                ],
                [
                    {
                        "bias": 0.07863481970038683,
                        "weights": [
                            0.14009203516133437,
                            0.5266810317542159,
                            0.22796090404268712,
                            0.5945088358895388,
                            -0.6663337916631629,
                            0.5452917621719517,
                            1.060758441612054,
                            0.061284832682215226,
                            -0.075041876167581,
                            0.4311981459248865,
                            0.6101143835197125,
                            -0.4516644522889682,
                            -0.4203512590289159,
                            0.6080956692166425,
                            0.2579768136043397,
                            0.5267206191461538,
                            -0.018647423695943317,
                            0.3712205993940335,
                            0.1887560886615148,
                            -0.09350261838314491,
                            0.028395412825050308,
                            -0.015550163378399803,
                            0.5452157055268166,
                            -1.0452862190582992,
                            0.644690216129597,
                            -0.4470234466122316,
                            0.4789329498007255,
                            -0.33478998589191955,
                            0.20266338363831682,
                            -0.09270699705249627,
                            0.23009062223659452,
                            -0.23436252163854487,
                            0.18600950190017396,
                            -0.023054353471381937,
                            0.45207064777074357,
                            0.018723557442098616,
                            0.33790667447460776,
                            0.22721462354296795,
                            0.2828926100834931,
                            -0.2822475505538605,
                            0.1790785080480207,
                            0.059709668096054935,
                            0.012885840943046165,
                            0.011364796607749715,
                            -0.5399985670042231,
                            -0.33777744678475785,
                            -0.18111845914544306,
                            0.16737847573470396,
                            0.5870654760052786,
                            0.18264623275724395,
                            0.09449712892806864,
                            -1.0821359991818509,
                            -0.07818228213053621,
                            -0.5494905030948941,
                            0.1254993562691966,
                            -0.008047849438643073,
                            0.00277450303119412,
                            0.28815220369158767,
                            0.3798340432328671,
                            0.0809714266810163,
                            -0.6448186496790448,
                            -0.035304018448918,
                            0.24079580835187941,
                            -0.25285924270593685
                        ]
                    }
                ],
                [
                    {
                        "bias": -0.07567385552563445,
                        "weights": [
                            0.7165445199056836,
                            0.27141095625046746,
                            -0.22225158927885624,
                            -0.29476030820000126,
                            0.24910402668430923,
                            0.03526065062678616,
                            0.014138498150522618,
                            -0.33855367680872017,
                            -0.16534810337043745,
                            0.11714217368092433,
                            -0.2961074362962938,
                            0.04849708826163008,
                            -0.1396806499661144,
                            -0.3689635103088592,
                            -0.2106863893361849,
                            0.5559470711945795,
                            0.5080613443851347,
                            -0.10928370343661885,
                            0.12132525619846395,
                            0.3664522643906976,
                            0.10531597681199821,
                            0.8036366857680068,
                            0.09286488547284555,
                            -0.2708916130782728,
                            -0.16548091056725805,
                            -0.2997512706498899,
                            0.4404211344978837,
                            0.29037851478987947,
                            -0.23945635655153694,
                            0.9959353554998912,
                            -0.006311013765808121,
                            -0.3295301298919385,
                            -0.06642051870375992,
                            -0.27285407165267433,
                            0.05080521809255261,
                            0.7471742001849617,
                            -0.04739880085425905,
                            -0.2212912626473158,
                            0.3406705623661997,
                            0.02461855979785562,
                            0.3804723378153471,
                            -0.3349829545166943,
                            0.6554974555770692,
                            -0.5793889498050997,
                            -0.3412382842699238,
                            0.0916726187530832,
                            0.12330729545836039,
                            -0.2397095344875242,
                            -0.3962759889009515,
                            -0.14722382693501834,
                            0.7673706648112865,
                            0.20814351035041997,
                            0.08392505298911294,
                            -0.43006167888638974,
                            0.24322512533570392,
                            -0.2396614744293131,
                            -0.20344034404961825,
                            -0.26665179273765943,
                            0.28596995775636846,
                            -0.44304121047468825,
                            -1.0892704014126744,
                            -0.09593461780737926,
                            -0.3859907721804508,
                            0.4492856860919989
                        ]
                    }
                ],
                [
                    {
                        "bias": 0.08697414134517337,
                        "weights": [
                            0.6951324308350365,
                            -1.0178253232067453,
                            0.6694727335853159,
                            -0.274295329305713,
                            0.36938299049637624,
                            -0.13086667677208808,
                            -0.13721144804409366,
                            -1.01563586684862,
                            -0.32744134192615026,
                            0.21209273845131463,
                            0.6533433329485506,
                            -0.5115137298561329,
                            -0.1345657438171272,
                            0.07289689983733122,
                            0.24895008584065803,
                            -0.19205912127626856,
                            -0.07109221125405685,
                            0.38158501886111545,
                            -0.3357747832352851,
                            -0.31568917518511413,
                            0.20718163861124198,
                            -0.21608965430658655,
                            0.6361516263304073,
                            -0.42190374600677255,
                            0.2518061605043035,
                            0.15968905961182495,
                            0.0072102522152854755,
                            0.21111127346201003,
                            0.32716562814041455,
                            -0.10285341537050957,
                            0.022303089738703895,
                            0.26879368194776554,
                            0.05334534692777891,
                            0.043195268732955754,
                            0.9664955334496289,
                            -0.04768629486383253,
                            -0.17833600692367443,
                            0.24210838429923556,
                            -0.1159027440826855,
                            0.2720203917627482,
                            0.17768871403332134,
                            -0.42763553611489635,
                            -0.2872195157101522,
                            0.2918485165324697,
                            0.44512582997534006,
                            0.9570365678547968,
                            -0.3527410015316742,
                            -0.7840235095525827,
                            -0.09556076774607226,
                            -0.8252531763198757,
                            0.24351015096766657,
                            0.010843082804194746,
                            0.15591914614211444,
                            -0.061053792566092904,
                            -0.20056833320887452,
                            -0.4242730787282152,
                            0.19031318554415816,
                            0.006953854161918405,
                            0.17280397486043553,
                            -0.4315109337382858,
                            -0.7388251142492722,
                            0.135518891372363,
                            0.28084117026094163,
                            -0.07067370504111316
                        ]
                    }
                ],
                [
                    {
                        "bias": 0.2991089990824484,
                        "weights": [
                            0.4633303153972335,
                            0.09492330011125805,
                            0.8722610430745851,
                            -0.30479949611614643,
                            -0.4739169541195085,
                            0.5632403160851046,
                            -0.8553924347083433,
                            -0.21216649867392537,
                            -0.5970675150424358,
                            -0.36141379142004904,
                            0.26730072125820276,
                            0.023482695272072477,
                            -0.6723449641114461,
                            -0.05806425489507064,
                            0.5609239969379537,
                            -0.731546961517961,
                            0.8240526605650028,
                            0.46037839329666375,
                            0.5132709186980496,
                            0.06555779746493656,
                            -0.38074865660586055,
                            0.3197073487842178,
                            0.12145526226171624,
                            -0.2058042324416645,
                            -0.5818324209051892,
                            0.7190472769665404,
                            0.34492543278979415,
                            -0.03108349443286444,
                            0.4049993700941739,
                            0.49043318038941247,
                            -0.4883896712699795,
                            0.32074376381297326,
                            0.31930115088908856,
                            -0.3876406173059783,
                            -0.028738897842645127,
                            -0.6982096311488648,
                            -0.06441408170573265,
                            0.7736255336514319,
                            0.39132893189439094,
                            -0.18867300391711259,
                            0.10113596158192908,
                            0.0030282916696919094,
                            -0.13971898829313692,
                            0.08796794031183207,
                            0.46189663215687243,
                            0.14845376561473791,
                            0.2430172167023221,
                            -0.33519311021663684,
                            0.1471645444620581,
                            0.5375921277986804,
                            -0.17412205193978095,
                            0.42242011539545343,
                            -0.866972910612826,
                            0.32691627808195084,
                            0.9423334927162059,
                            0.21059566839385238,
                            0.6526999214082282,
                            -0.2900690527020077,
                            0.44686125704706875,
                            -0.3378283013245994,
                            -0.1537064979808015,
                            0.21675557244593405,
                            -0.495853387937012,
                            -0.324052405210744
                        ]
                    }
                ],
                [
                    {
                        "bias": -0.01794123028770418,
                        "weights": [
                            -0.39786695108025266,
                            -0.1611817807733048,
                            0.18529231877079888,
                            0.1613913962137994,
                            0.2620781530229506,
                            0.13401748264413796,
                            -0.3910328681057822,
                            0.25278725999134743,
                            0.18433416877636843,
                            0.2464462621204831,
                            0.3138629687517515,
                            -0.06453377699955629,
                            -0.08372491464461532,
                            -0.029092743241747814,
                            -0.3518797764053038,
                            0.29796153914323964,
                            -0.5173689417039637,
                            0.20455297895430613,
                            0.3131288951014809,
                            0.4842611852909859,
                            0.7956232714279351,
                            0.21127240893603633,
                            0.9265243160847291,
                            0.04674753276376632,
                            0.16950032575777457,
                            -0.2637354512341527,
                            -0.5312138769510661,
                            -0.49002970253456696,
                            -0.12934277174348696,
                            -0.15682591323585934,
                            -0.017550802818252807,
                            0.15960497168998358,
                            0.07456935952006064,
                            0.14487882873113292,
                            -0.2613693644786322,
                            0.31397496530458585,
                            0.23073865323366535,
                            -0.445771610065059,
                            -0.40881832764812603,
                            -0.15424969574142167,
                            -0.7445790399656596,
                            -0.178551670424573,
                            -0.13278862735982516,
                            0.6632670010838909,
                            0.19069139794786777,
                            -0.22089508058304125,
                            0.7874302179457433,
                            -0.9617539646660299,
                            0.42614346481326704,
                            0.5091432206590586,
                            0.0795966544902658,
                            -0.11967302834461252,
                            -0.13310814216869882,
                            -0.07891953520546302,
                            0.7213425459509035,
                            -0.16019614235854862,
                            0.24180746949694587,
                            0.2832294651147162,
                            -0.2997355696153747,
                            -0.0019243190003521969,
                            0.29843013893549347,
                            0.12579533769490242,
                            0.559614830154458,
                            -0.3870560191635292
                        ]
                    }
                ],
                [
                    {
                        "bias": 0.07407520905375262,
                        "weights": [
                            -0.23700759614911276,
                            -0.3478125178979934,
                            0.20064699115026088,
                            0.12264928082631396,
                            0.05726543597051808,
                            0.174905365829067,
                            -0.4631113361741315,
                            0.28027327090880105,
                            0.08279054840029772,
                            0.22476664938039784,
                            -0.5680239603380157,
                            -0.33855143257991405,
                            0.2780249816736699,
                            0.19696527947191148,
                            0.02330021041260293,
                            0.6840591867521608,
                            -1.0708575097415864,
                            -0.5177881923376967,
                            -0.1930057355587477,
                            0.6911744603331313,
                            -0.21946284808791772,
                            -0.15526716652189057,
                            -0.20949884397640772,
                            -1.1418080730439197,
                            0.3135832497426613,
                            0.5814772779100694,
                            -0.6136602716560194,
                            0.054064975244177936,
                            0.4363017897528711,
                            0.2792443264146711,
                            -0.3945279486397173,
                            0.37449425759043076,
                            0.13319121203551768,
                            -0.027630659112437374,
                            0.3315602477317089,
                            -0.29034884949304257,
                            -0.11032180239288807,
                            0.2345484755046605,
                            -0.018088367979106748,
                            0.9082405609965498,
                            0.4277276085355488,
                            -0.34286501051531854,
                            -0.4586980789572183,
                            0.48875241251394447,
                            -0.2490164240550693,
                            -0.6390832032216999,
                            -0.018045277285034047,
                            -0.4266127688723322,
                            0.043039116044912826,
                            -0.1366076432387103,
                            0.14272604279661874,
                            0.35042709726330123,
                            0.43267497978471753,
                            0.9159570025065438,
                            -0.021517208178259854,
                            0.2550981080996618,
                            -0.04653925291678545,
                            -0.2170834762885535,
                            -1.052879490832674,
                            0.0763244208668957,
                            -0.04275017773191158,
                            0.0757022929592126,
                            -0.5384536659733306,
                            1.0226384148983931
                        ]
                    }
                ],
                [
                    {
                        "bias": -0.11067187589934442,
                        "weights": [
                            -0.11468639180768514,
                            0.4411713304110389,
                            0.721508661837104,
                            -0.05661683147176748,
                            0.6129704016279253,
                            -0.26737236403943365,
                            -0.006673572115406421,
                            0.12416840240119957,
                            -0.28220727406373747,
                            -0.5384262259316384,
                            -0.4138141951841988,
                            -1.1418984000447177,
                            0.1064448468334431,
                            -0.27074761721131047,
                            0.5390758171808837,
                            0.47152036078139736,
                            0.21300907468279862,
                            0.44938161155358813,
                            -0.9656949207778915,
                            0.24417045429999018,
                            0.099652264168113,
                            -0.23670434897811732,
                            -0.31134013023854884,
                            -0.2220843855810045,
                            0.4170989284217045,
                            -0.41575074861037575,
                            -0.7789807547859469,
                            -0.0005507102170148441,
                            0.15882073599728724,
                            0.011913422982443819,
                            0.04889116660154553,
                            0.6747983698718042,
                            0.48483416272160446,
                            0.7187090698389497,
                            -0.2856828868587419,
                            0.47092507598291766,
                            0.3521572830846025,
                            -0.05196565947253376,
                            0.33838904784215296,
                            -0.6094197697930454,
                            0.4908099759985276,
                            0.42678866214697647,
                            -0.3904417504841267,
                            -0.12274061578228776,
                            -0.49259777164624374,
                            -0.19760364468160416,
                            0.07501352449228899,
                            0.0010313777521216679,
                            0.46008120763044075,
                            -0.609620947062992,
                            -0.4925329513977547,
                            -0.4509329245744757,
                            -0.0967106836779505,
                            -0.43831515817386607,
                            -0.4177973895435887,
                            -0.13471536699627895,
                            0.06074424490650125,
                            0.1390476588232917,
                            0.26148024163835226,
                            0.6717891926952902,
                            -0.3500211520837302,
                            0.0345617104480601,
                            -0.33981408432580035,
                            -0.1414086291850665
                        ]
                    }
                ],
                [
                    {
                        "bias": -0.2572891469122116,
                        "weights": [
                            0.500217651272872,
                            -0.46826874076335534,
                            -0.026458442797141005,
                            -0.4358683618414783,
                            0.21088778286434728,
                            0.6809722282141344,
                            0.6061003466402968,
                            -0.25293109689193616,
                            -0.6075465896922392,
                            -0.16866730072603275,
                            1.1841786747630525,
                            -0.2030706977846473,
                            0.23709949127473323,
                            0.7406054746152414,
                            0.1079021223536916,
                            -0.25143054656530617,
                            0.21414141978911094,
                            -0.25234850179995705,
                            0.006914935726167122,
                            0.4871602617443816,
                            0.4790068937333396,
                            0.031138699582586412,
                            -0.26680737388625025,
                            -0.3645639808165146,
                            0.5067604311474599,
                            0.41332240628523026,
                            0.5016231322530175,
                            0.19072635866740476,
                            0.005378908365531509,
                            -0.10961018900018647,
                            0.5379040460255939,
                            -0.18188920785193766,
                            -0.1200054881233221,
                            0.16589006538250314,
                            0.13649643119681623,
                            0.179009313183688,
                            -0.549923974759381,
                            0.31312864013204794,
                            -0.5095625911946178,
                            0.1826179237724831,
                            -0.4988930991050957,
                            -0.470492080954734,
                            0.4792936673669778,
                            -0.06853426336023925,
                            -0.838619898240098,
                            -0.6885674327523923,
                            0.40159714420588694,
                            0.19854414242322765,
                            -0.0948730142831318,
                            0.20778963994894686,
                            -0.20968398915105554,
                            -0.3478621971206811,
                            -0.3095007659967483,
                            -0.3343943467685131,
                            -0.5180180833676158,
                            -1.091241237992282,
                            0.08669601819143281,
                            0.02401185398163464,
                            -0.1069627779388376,
                            0.20406589775203368,
                            -0.4275833634366106,
                            0.3596614749618047,
                            -0.27327534322844654,
                            -0.3461565713644453
                        ]
                    }
                ],
                [
                    {
                        "bias": -0.5671015558852428,
                        "weights": [
                            -0.4232783360385298,
                            0.33175263999491905,
                            -0.20679161502763682,
                            0.5438589243429098,
                            -0.20506182002682882,
                            -0.3398033864675914,
                            0.3261636832542957,
                            0.017747136214395238,
                            -0.29549350643802497,
                            -0.2452778380603007,
                            0.5534772572253774,
                            0.10100060749518312,
                            0.08114017410464994,
                            0.41206808145004636,
                            0.5398996311622656,
                            -0.09583300089988707,
                            0.04142491055857952,
                            0.5885684550669781,
                            -0.16556124555486482,
                            -0.0901015445155731,
                            -0.10337207020156089,
                            -0.22983894593196616,
                            -0.07990583382801476,
                            -0.020533595048906412,
                            -0.17497894956225463,
                            0.24990916011949915,
                            0.4993213364027744,
                            -0.39832823296383696,
                            0.3177658390852496,
                            -0.6595925555528783,
                            0.7019817842492332,
                            -0.38997206757922054,
                            -0.25368706549026815,
                            -0.15928933672258347,
                            0.14390658726984112,
                            0.05841536221517259,
                            0.37263609308782464,
                            -0.2771310214920746,
                            0.35435965552397075,
                            0.10786509673758861,
                            0.47046671086791403,
                            0.5278624796720299,
                            -0.12836846834916354,
                            0.7883503544600428,
                            0.8439617449154287,
                            0.30406501331209806,
                            -0.713291351246774,
                            -0.25137554735814716,
                            -0.1500995971829487,
                            0.5554710269983417,
                            -0.010046420812355579,
                            -0.15145363162723632,
                            0.5867814312611219,
                            0.3165547821783995,
                            0.9429578739210593,
                            -0.25894081581947376,
                            0.48880115078158365,
                            -0.18433409312670454,
                            -0.22758142659771044,
                            -0.9310819370632577,
                            -0.5693905921394768,
                            -1.1996500065941154,
                            -0.08879491998576484,
                            -0.5438349004421945
                        ]
                    }
                ],
                [
                    {
                        "bias": -0.4905897583519062,
                        "weights": [
                            -0.5102328197202206,
                            0.41330788093125564,
                            -0.5634710627756613,
                            -0.43350030405294704,
                            0.37720696345752763,
                            0.01604985424730853,
                            0.04881712889169653,
                            -0.5049041351724021,
                            -0.4349649452389611,
                            -0.17475191538927062,
                            0.23333509040270822,
                            0.08662300965176349,
                            -0.2441987107927882,
                            0.32232621366814085,
                            -0.1520599315005928,
                            0.6789556958381276,
                            0.28833568523687014,
                            0.4813152530378407,
                            0.609649563288922,
                            0.13741028417022877,
                            0.0417173061576808,
                            -0.028700642687142865,
                            0.4076416010355816,
                            -0.2172434105160299,
                            -0.5750114820806846,
                            0.1747993112006955,
                            -0.012433249428659515,
                            0.1306809869963211,
                            -0.6417562765412621,
                            0.616487338571895,
                            0.5664625157059724,
                            0.6138824326280015,
                            -0.6178031765241384,
                            -0.03623809235610386,
                            -0.053773023215565076,
                            0.541960314888601,
                            -0.07533873025745674,
                            -0.05194455472161097,
                            0.2079772332699168,
                            0.24403197441389665,
                            0.4226405376678376,
                            -0.1996211126730516,
                            0.8890256855843126,
                            0.3225037061611842,
                            0.2604605412901189,
                            0.17717582366403528,
                            -0.17588557659513365,
                            -1.1149216456896647,
                            -0.3723793909240339,
                            0.5341324271294392,
                            -0.11430875536817545,
                            -0.2557516799916296,
                            0.32681644652292596,
                            0.24429763053983278,
                            -0.07667447310265756,
                            -0.5477687888040255,
                            -0.014853878900432525,
                            -0.3085796864485401,
                            0.04189286861194643,
                            -0.06657479310032259,
                            0.1795223515205925,
                            -0.2304271409063635,
                            0.27519327114417436,
                            -0.29270223105187493
                        ]
                    }
                ],
                [
                    {
                        "bias": -0.3131292580074058,
                        "weights": [
                            -0.06035063123317041,
                            0.06649622220079136,
                            0.6654130263174773,
                            0.050714681460015135,
                            -0.0747656619968075,
                            0.9609294216361791,
                            0.17304658485576033,
                            0.24822120366692443,
                            -0.4861212505007753,
                            0.7276892630015398,
                            -0.17759265809071267,
                            -0.24280524918803026,
                            -0.014130235912331056,
                            -0.6625083355146074,
                            0.07277983646719466,
                            -0.5259697221307462,
                            0.12384456450911209,
                            0.04784076873794045,
                            0.238022091364092,
                            0.4108964966533271,
                            0.250590346000477,
                            0.42734719583933567,
                            0.11218010067076391,
                            0.28362341045399875,
                            -1.3042790624060352,
                            -0.26025505953179207,
                            -0.060861523086567414,
                            0.28867626607709096,
                            0.017216161078117676,
                            -0.201521934256399,
                            -0.37098609568627117,
                            0.3422655114334133,
                            -0.06429918456481358,
                            0.2725319988261981,
                            0.17154899355998016,
                            0.1538081193014035,
                            -0.8238603907592633,
                            -0.08745492177163633,
                            -0.012660208844484069,
                            0.057982183717238074,
                            0.14151532807496484,
                            0.2349338792657664,
                            0.7355601958793967,
                            0.5647097031336464,
                            -0.19874481135922972,
                            0.405695866857916,
                            -0.20624116157131198,
                            0.9830592520103785,
                            0.3480888583415013,
                            0.33375856235594736,
                            0.26676408271783913,
                            0.04596486046985541,
                            0.1531857058560835,
                            0.2032848896148996,
                            0.25415907788677167,
                            -0.4725329601241237,
                            -0.11508249216416867,
                            0.35408238104803863,
                            0.11702322122465729,
                            -0.014027096458705219,
                            -0.28090557096111757,
                            -0.11946544383175449,
                            -0.0139446467012751,
                            -0.148922016848985
                        ]
                    }
                ],
                [
                    {
                        "bias": -0.33095766934529913,
                        "weights": [
                            0.2831565219418469,
                            -0.18164570266738922,
                            -1.023657656181127,
                            -0.34963765428072757,
                            -0.8205394970893776,
                            0.03112660731956154,
                            -0.802905194790021,
                            0.23258753317783437,
                            0.5128712305381496,
                            -0.2890091130860935,
                            0.45245167918537277,
                            -0.6363310695589749,
                            -0.19259393296912505,
                            -0.2600242781998445,
                            -0.20733694417743498,
                            -0.049299534213970514,
                            0.28833895804541093,
                            -0.06519089557021603,
                            -0.10509739474379114,
                            0.9976081041331987,
                            0.4343995826049215,
                            -0.4703820446589302,
                            0.13392695590321202,
                            -0.34002277749871895,
                            -0.3584768380038592,
                            0.3113657633548389,
                            0.23306508672266715,
                            -0.3039169401122737,
                            -0.02133467487308873,
                            0.38802538880186016,
                            0.13595624411665583,
                            0.3846974343779813,
                            0.5957418552660081,
                            0.22465294368246663,
                            0.005482071146441232,
                            0.06595150595298531,
                            0.5946080014164905,
                            0.10751216544758946,
                            0.4189550356005709,
                            -0.16472258940337103,
                            0.7832833309356029,
                            0.28153147164416564,
                            -0.2075421928891385,
                            0.8683364276301818,
                            -0.010336227534743125,
                            0.5937751075055632,
                            -0.11335789831828401,
                            0.26515505636546105,
                            -0.0345525161577068,
                            0.11396478230308689,
                            -0.49234080535447317,
                            -0.11382111523907537,
                            -0.3354632595165408,
                            -0.07090030856983713,
                            -0.21534253937557973,
                            -0.7138483611367776,
                            1.0444298618091974,
                            -0.134103746082518,
                            -0.1813917002034148,
                            -0.025574958766329002,
                            0.36134050769106063,
                            -0.023449451155316943,
                            0.04939919712157906,
                            -0.5839269913875942
                        ]
                    }
                ],
                [
                    {
                        "bias": 0.3101240695269966,
                        "weights": [
                            0.4313357305428981,
                            -0.12605640578115054,
                            -0.36675319024647546,
                            -0.11642781193758117,
                            -0.17981052241855422,
                            0.6237521592273871,
                            -0.15504934274259657,
                            -0.0675835419695876,
                            -0.01767267397954312,
                            0.1899518219550816,
                            0.2201521019217348,
                            0.24452215592978913,
                            0.22159636670499291,
                            -0.7220017166744009,
                            -0.11121250476263217,
                            0.2229086826020868,
                            0.22861286842727438,
                            -0.1091885913961174,
                            0.38800202897003944,
                            -0.3408156393373927,
                            0.48474906241946525,
                            -0.04388018215733759,
                            0.005019174819399146,
                            0.47364181243034653,
                            0.5767905288954125,
                            -0.12230494802920769,
                            0.054166340543505644,
                            0.44489327216509494,
                            -0.19420271369770714,
                            0.49488606084561215,
                            -0.3016209476315815,
                            -0.1471007146583621,
                            -0.4934945526182182,
                            0.5964609872280685,
                            -0.009728662248258033,
                            0.07361501720018941,
                            1.0083546938385142,
                            -0.432810341104845,
                            0.12286898556770436,
                            -0.04322459198597446,
                            0.05444680214421602,
                            -0.299503410077299,
                            0.6095415523129647,
                            0.25382605466181074,
                            -0.6553673591822734,
                            0.7121702372791893,
                            -0.14395656301778376,
                            -0.4890208472121008,
                            -0.8819264912410071,
                            -0.06183614409653109,
                            0.2857797957026211,
                            0.08291188990973673,
                            0.8323662797693504,
                            -0.10079393508045828,
                            -0.17414592959682498,
                            -0.02270840242574376,
                            -0.07079453455910496,
                            0.06276545866478374,
                            0.015154432749374334,
                            -0.027610049943526095,
                            0.09953966068272169,
                            0.020537447961139845,
                            0.7303660449797269,
                            -0.1837020090231403
                        ]
                    }
                ],
                [
                    {
                        "bias": -0.17921466376117426,
                        "weights": [
                            0.018600253833404964,
                            -0.20684523125076443,
                            -0.329597158030594,
                            0.28638769042535894,
                            -0.3037349365912956,
                            0.20190101278828776,
                            -0.19874110669657197,
                            0.3969283737370874,
                            0.025380352421779554,
                            0.186603629685546,
                            -0.09065364339734513,
                            0.11031900418121174,
                            0.16282983085568814,
                            -0.5402504991354938,
                            0.24573628336651532,
                            0.4044306462691364,
                            -0.15844635397594814,
                            -0.4661671936377313,
                            -0.25073498111678416,
                            0.09974562611871346,
                            0.24421462425997376,
                            0.260298492153365,
                            -0.47263257309285334,
                            -0.28747239079998455,
                            -0.7349870039608408,
                            -0.29519811000639085,
                            -0.6614274907804605,
                            -0.19673812340041358,
                            0.5085652798231192,
                            0.311039226030401,
                            -0.4568467669931324,
                            -0.6384845530229022,
                            -0.566584017352181,
                            0.6243659805258795,
                            -1.0126243868887892,
                            -0.2541122095281704,
                            -0.7075193288396319,
                            -0.09473301998026351,
                            0.31402736786062363,
                            0.19765865411077255,
                            -0.2471318048703874,
                            -0.05538677580078397,
                            0.40075381020521866,
                            0.03246665614050689,
                            -0.21573997685809607,
                            -0.13369117864375568,
                            -0.385329558979999,
                            -0.6611665925876786,
                            0.6093477798562469,
                            0.2541121239174321,
                            0.37292592072294545,
                            0.11564970983288439,
                            -0.34528922721769867,
                            -0.36873896766673303,
                            -0.2190846680090221,
                            0.23252724802166763,
                            0.2486940326518338,
                            -0.12291431303669674,
                            -0.6402276585890582,
                            0.1654591145692031,
                            0.23858124384914883,
                            -0.12774429686428265,
                            -0.26567236511053965,
                            0.2037467168703677
                        ]
                    }
                ],
                [
                    {
                        "bias": 0.11837060684528111,
                        "weights": [
                            -0.29067456749468445,
                            0.16981334376267923,
                            -0.30611478879563786,
                            -0.7037383542858267,
                            0.5783195205646435,
                            -0.07957023371975813,
                            0.38205805583740277,
                            -0.05144791989042545,
                            -0.36788111599439816,
                            -0.4275049531166601,
                            0.18762459712403726,
                            -0.2714264999659719,
                            -0.4513305798634163,
                            0.23946077943212601,
                            0.0673875545714217,
                            -0.11573271457477614,
                            -0.1307174974427941,
                            -0.3743816842396029,
                            -0.26799433270777323,
                            -0.19999400384830257,
                            0.7007217468200314,
                            0.7287410337735356,
                            -0.35452157822200303,
                            0.2485127350987331,
                            0.22544829305712774,
                            0.2810221251224596,
                            0.29695156794584104,
                            0.2501209568328225,
                            0.17152030182722813,
                            -0.3650992588243011,
                            0.37979672227205324,
                            -0.007608141288885625,
                            -0.5641632278792423,
                            -0.4957459742888388,
                            0.05156310217021893,
                            -0.427728477494453,
                            -0.5478623965772881,
                            -0.13012417123008196,
                            -0.6176625826768252,
                            0.3978231992076108,
                            0.08299217359582438,
                            0.3085368808707952,
                            0.2724882166354405,
                            -0.31293893343317425,
                            0.2994911762248719,
                            -0.26995146519504487,
                            0.16826508759305675,
                            0.2961628757678755,
                            0.34051811716390007,
                            -0.1965619855215377,
                            0.4182642312175387,
                            0.1663988362969973,
                            0.4514809640075917,
                            -0.16757051251023308,
                            0.5409385427115971,
                            -0.25306172474510036,
                            -0.1343944616818421,
                            0.09809398724057726,
                            0.044145946397784804,
                            -0.40230579226578495,
                            0.5772131167766131,
                            0.3032044583204336,
                            -0.45698258951844745,
