[
    {
        "brain": [
            [
                {
                    "bias": -0.11472962111731616,
                    "weights": [
                        0.8182908132150148,
                        -0.22792972305432524,
                        0.41483660794665145,
                        -0.21208557865122674,
                        -0.7665113720642013,
                        -0.28528762903719823,
                        -0.13388383818781807,
                        -0.14305901239084412,
                        0.5317187488295015,
                        0.3026715863454034,
                        0.43076210821442196,
                        -0.41164761285653556,
                        0.9066009547484783,
                        -0.11858825315912763,
                        -0.02773602718740048,
                        0.9179663266221512,
                        -0.06288307265603654,
                        0.4849152950632525,
                        -0.5540723635829985,
                        -0.7469025222434927,
                        1.3355535332624162,
                        -0.004101376373680299,
                        0.176700558948943,
                        1.2109026451908387,
                        -0.0969700416941271,
                        0.4995378359110208,
                        0.5277027110293636,
                        0.27162634611426106,
                        -0.04804390519273617,
                        -0.06533373864460523,
                        0.01044337654571137,
                        0.13340757076880566,
                        0.19721081385113723,
                        0.41116501894092217,
                        0.695978885466083,
                        0.8625577405406744,
                        0.20177106167512782,
                        0.3013002253821961,
                        0.295735762908674,
                        -0.08614379564512911,
                        -0.2683680897166764,
                        0.7472207414822687,
                        0.27573587981579,
                        0.506515249778012,
                        -0.1034562292855501,
                        0.5769766513558632,
                        0.41060728735971824,
                        1.1949865477611847,
                        -0.48460690117439054,
                        0.5996172949503986,
                        0.8117882464664739,
                        -1.4963316536662332,
                        -0.00036658456843174925,
                        -2.002436496924788,
                        0.6489147612711184,
                        0.36458334601372117,
                        -0.9526039067631256,
                        0.3130154299991994,
                        0.36900418649838845,
                        -0.328967866771617,
                        -0.22014897549606405,
                        0.05072588208939599,
                        0.4141725555090192,
                        -0.028032962487527513
                    ]
                },
                {
                    "bias": -0.8268273874273588,
                    "weights": [
                        -0.6514074819589308,
                        0.09378667943122228,
                        -0.035530178368854415,
                        0.23326732139439368,
                        0.9394083304459697,
                        0.5460978126796148,
                        0.39782031856412164,
                        0.03004139410445908,
                        0.04890148249610393,
                        0.2091012175633884,
                        0.027785966947017016,
                        0.46031599065198864,
                        -0.11324259249085072,
                        -0.4570976578599021,
                        -1.3720244618820192,
                        -0.7472697040285747,
                        -0.36895716947088275,
                        -0.09510595108764876,
                        -0.020191232556694992,
                        0.5216678258226961,
                        0.3067465980029681,
                        -0.21736465829825435,
                        -0.30859610632594897,
                        -0.20958258163387838,
                        -0.7543649765108305,
                        0.025052335476782817,
                        0.6021638124112962,
                        1.0602428494290466,
                        -0.6000650143591622,
                        0.3125409774521683,
                        -0.3319673738700746,
                        0.024932287824977212,
                        -0.03539587322439347,
                        -0.023676283759791805,
                        -0.024211107663677657,
                        -0.5087518048307714,
                        0.031244174424226383,
                        0.17429771505212682,
                        -0.8588481570582042,
                        0.3964517306874102,
                        0.13786127353936095,
                        -1.0020172373865182,
                        0.05056091742066007,
                        -0.2258766298096208,
                        -0.10174027288888018,
                        0.445070548524514,
                        0.06905062086441449,
                        -0.1326351855977972,
                        0.2985491964921771,
                        -0.4609539081581053,
                        0.4004461442958666,
                        -0.13856073017840947,
                        -0.8649766762711175,
                        0.21162488619895553,
                        -0.5786428834943237,
                        -0.18478730189916182,
                        -0.5241706321066799,
                        -0.3180951662642219,
                        0.6833975860070223,
                        -0.11352714200724645,
                        -1.1935801373183417,
                        -0.4093109145764194,
                        0.32609907712142344,
                        0.13736632393742193
                    ]
                },
                {
                    "bias": -0.2156722394181208,
                    "weights": [
                        0.2600365156590802,
                        0.3640463276529701,
                        0.3422156008197769,
                        -0.25882561205352916,
                        -0.5579080605565152,
                        0.4597061858233368,
                        -0.03551745810517614,
                        -0.7340980281181927,
                        0.7038938640918446,
                        0.633689417937756,
                        0.5600843172705264,
                        -0.07097124542123612,
                        -0.03699875682648879,
                        0.3850413626685991,
                        0.5398800789800259,
                        -0.22993418030565138,
                        0.0007783146705516719,
                        0.2585980682231574,
                        1.0621425228513333,
                        0.5563260458296662,
                        -0.09571635697782777,
                        0.11305667059865968,
                        -0.8630699038613463,
                        -0.2971323934685558,
                        -0.22668684880325,
                        -0.3935685140948564,
                        -0.002266574722852008,
                        0.4489696928450009,
                        0.4746598815511923,
                        0.43452725206570747,
                        -0.1923548714978543,
                        1.1901037851073903,
                        1.3370658100030655,
                        -0.2859006693763702,
                        -0.10891252716696159,
                        0.007957953994396305,
                        -0.4554530909698954,
                        1.07995581832294,
                        0.4981907416275522,
                        0.19650279388215214,
                        -0.1398530426898834,
                        0.4555848086039336,
                        0.13654823417226586,
                        -0.6760873190816099,
                        -0.37788400054313587,
                        0.28310646666290623,
                        0.8854628171760712,
                        -0.13032090937295313,
                        0.25160468774897865,
                        0.0942662588838013,
                        0.176109129147274,
                        0.13396633211431577,
                        -0.3060901129656425,
                        0.4047598580718932,
                        1.235764864429069,
                        -0.6151685618878411,
                        0.5922258623728098,
                        0.09350937981662198,
                        -0.3429108782917431,
                        -0.37117124079968555,
                        0.6170493512787973,
                        -0.19048877094651678,
                        -0.2617687541850852,
                        0.43223280557141175
                    ]
                },
                {
                    "bias": 0.45602442260092085,
                    "weights": [
                        -0.011028445923199737,
                        0.4496696733001987,
                        0.23540054867280646,
                        -0.6462437230653858,
                        0.35277304462972864,
                        0.508923453188665,
                        -0.7471619660910723,
                        -1.0541476299639017,
                        0.7859264054286335,
                        -0.6338805909455881,
                        -0.3410572230116755,
                        0.3478900946079966,
                        -0.19090701186652323,
                        0.09953691615742749,
                        0.3727525929898142,
                        0.16680999560837426,
                        0.5878257527389594,
                        0.4662224569472172,
                        0.059683334037966385,
                        0.7798663585881519,
                        1.1282849355613767,
                        -0.6292989417447108,
                        0.22635434692458695,
                        -1.6694067077807282,
                        -1.0548216736490028,
                        0.07086667743057223,
                        -1.0810456071562342,
                        -0.19125021753825167,
                        0.36866946902382014,
                        0.4657033633319785,
                        -0.028896612843943986,
                        0.8418484440742152,
                        0.32067599457448864,
                        1.0861954662479048,
                        0.42069409920096223,
                        0.08471554267988787,
                        -0.12288335312303439,
                        0.5740721905886065,
                        -0.4289415628497334,
                        0.26523177903100387,
                        -0.2898366714642397,
                        -1.5390572265176286,
                        0.14344324857125182,
                        -0.4560059999680897,
                        -0.013058199010321125,
                        -0.056919253962785465,
                        -0.27371794197458404,
                        -0.4785877450358779,
                        -0.4782087657576651,
                        -0.24575908387219447,
                        0.5392694500315153,
                        0.4943017573252233,
                        0.7029583752386165,
                        0.764268127562249,
                        -0.5241427761766276,
                        1.3016109939561331,
                        -0.13470183671941516,
                        0.02644266585588903,
                        -0.03273317767511433,
                        -0.6184142981461329,
                        0.3795671513076297,
                        -0.20177073453272382,
                        0.12729767582040033,
                        0.03897866106671394
                    ]
                },
                {
                    "bias": -0.1877214412337277,
                    "weights": [
                        -0.2411638681150904,
                        -0.20151621124256455,
                        0.7224234235060837,
                        0.22736012808966508,
                        -0.27227302680383775,
                        1.0448584620291377,
                        -0.833458009807793,
                        0.44948324216068003,
                        0.044686933889058866,
                        0.6672855929621571,
                        0.32564124201301897,
                        -0.04248302904195356,
                        0.13057705002815406,
                        -0.3457785477076345,
                        0.2930887275864199,
                        0.05759128719320916,
                        0.053597833245210114,
                        -0.6291888145193785,
                        -0.5420213653246613,
                        1.1474993117628767,
                        0.8199564592518427,
                        0.19037080666213402,
                        0.8331521441122416,
                        -0.033578861855403375,
                        1.2578185513787872,
                        0.6085805229660308,
                        -0.48573810662434624,
                        -0.01708790805148605,
                        -0.28865244978943605,
                        -0.4266233418652484,
                        -0.7931559620835498,
                        -0.22293090802047527,
                        0.1200626540942975,
                        0.24052924263669,
                        -0.17555091031421524,
                        0.6437873141340603,
                        -0.17405576553120272,
                        -0.13964294610370143,
                        1.1471973934940884,
                        -0.6997994082253682,
                        0.7510920233221977,
                        0.528113951058955,
                        0.4479150411803237,
                        0.5855690233211349,
                        -0.06849364438127037,
                        0.05235179574448151,
                        0.05064787921337881,
                        0.3397091408373403,
                        0.5636507171656814,
                        -0.32337088997528624,
                        -0.46622680635611075,
                        0.16864281367976847,
                        0.6172231604340598,
                        -0.6764173682968243,
                        0.11848810719962205,
                        0.011027378365367435,
                        -0.831486677606413,
                        -0.9185490228712974,
                        0.839872627580645,
                        -0.765270575422546,
                        0.9312829279415815,
                        -0.6027476580564046,
                        0.2832570868168699,
                        -0.19595135670958025
                    ]
                },
                {
                    "bias": 0.2242670778001395,
                    "weights": [
                        -0.7491187683444834,
                        -0.1320800410276717,
                        0.39630655378212687,
                        -0.6520032713872312,
                        -0.01443995155625713,
                        -0.17650942046385548,
                        -0.5864382358574342,
                        0.3097799693374789,
                        0.7856204681221559,
                        0.619778126501002,
                        0.38909438839098576,
                        0.024848707262472153,
                        -0.08033508327701622,
                        0.2532020025351227,
                        -0.17772606940906469,
                        -0.3354308800589728,
                        -1.3146415649248029,
                        -0.9169043180016203,
                        0.2585243341870127,
                        0.690849422249193,
                        -1.092208309907618,
                        -0.6329081569603698,
                        0.028020005370964315,
                        0.579607236149707,
                        -0.5262356336396503,
                        -0.15164997358444404,
                        -0.03356992491279118,
                        0.07499378739289397,
                        -0.02271914129668147,
                        0.039079407720321285,
                        -0.19847975501148063,
                        0.16772333761149152,
                        0.6469173661812326,
                        0.6738762437151583,
                        -1.0286471853121189,
                        -0.25163647883175844,
                        0.17322630086329105,
                        -0.25179179018219683,
                        0.22204016992977102,
                        -0.587297880420882,
                        -0.5953881738467932,
                        0.18875961129420377,
                        0.6329792549233384,
                        0.187784487213085,
                        0.09832952381765418,
                        0.2759031114576884,
                        0.038305192947618916,
                        0.4698219353488085,
                        -0.2030064035103337,
                        0.15556532629474504,
                        0.04064231642603291,
                        0.8380968226516983,
                        0.214527523269609,
                        0.5677687457473297,
                        -0.13641376145443687,
                        -0.596468289729846,
                        1.109884856206186,
                        -0.23743698092297721,
                        0.08773390393028305,
                        -0.8044326282331066,
                        0.32336192033511657,
                        0.09544091633097496,
                        -0.7521940113042835,
                        0.641750392241673
                    ]
                },
                {
                    "bias": 0.4574791006985258,
                    "weights": [
                        0.5606055005759978,
                        0.5440539045182163,
                        0.939298265080912,
                        -0.1002644667544738,
                        -0.19654346325812205,
                        0.23594300391706385,
                        -0.6791397080193213,
                        -0.9296799989768465,
                        -1.1505134610231735,
                        0.02952968705110672,
                        -0.41732222604219876,
                        0.772724092424446,
                        0.30748002842566774,
                        0.0794085916872969,
                        0.09848994748222417,
                        1.0009698103688562,
                        1.2139176320297544,
                        -0.3497864906434969,
                        0.6414827301764444,
                        0.2247151261349128,
                        1.3503017539772526,
                        0.13383941232185656,
                        -0.720712842204581,
                        -0.10358086672208006,
                        -0.31923260635149,
                        0.213384655850623,
                        0.16781353448059444,
                        -0.7476825310327732,
                        -0.30861140170260815,
                        -0.8219846373284928,
                        -0.58886988165924,
                        -0.2928747268804341,
                        -0.29516940040028405,
                        0.852797273020089,
                        1.2163705353839092,
                        0.6675734245194733,
                        -0.3196853326796969,
                        -0.18649864310595848,
                        0.24127207510734144,
                        0.6754592999686981,
                        0.4427838874560523,
                        0.1310259794466308,
                        0.7121483247578816,
                        -0.35386138096381187,
                        0.10642098855431431,
                        0.03453582747879402,
                        -0.28324010748968764,
                        -0.023564445876706974,
                        0.6643765080483135,
                        -0.7649614426788438,
                        -0.7555309206530427,
                        -0.43213362595479937,
                        0.14545792878208297,
                        0.08830740716884444,
                        -0.040122572409923424,
                        -0.5921821347455757,
                        -0.5938135952999305,
                        -0.8973296479004758,
                        0.5710523937874616,
                        0.4911823338097458,
                        0.2779833589657151,
                        0.08336121453452196,
                        -0.8895607182755827,
                        -0.25891349349997883
                    ]
                },
                {
                    "bias": 0.7223605648211622,
                    "weights": [
                        0.7950474366441899,
                        -0.6901054199211762,
                        0.07329640678303329,
                        0.4888497237919246,
                        -0.0051861053833883175,
                        0.7233504133678221,
                        -0.5876721438269219,
                        -0.2638928094157603,
                        -1.377206293709897,
                        0.7183902730999618,
                        0.6977972767263255,
                        0.05830950076343229,
                        0.8061277709843973,
                        -0.44358515222939043,
                        -0.7819039372808103,
                        -0.24631838632710806,
                        -0.6563173071128332,
                        0.9202723558384722,
                        -0.23279862129375525,
                        -0.18083229436614928,
                        0.2336181030748058,
                        -0.16925881577803162,
                        -0.6008220557240215,
                        0.5004486274419445,
                        -0.5486049995596953,
                        -0.06784545198980313,
                        0.49687031485460315,
                        -0.3601965490783394,
                        -0.4556467515509367,
                        -1.7549650153023515,
                        0.10988453046237201,
                        -0.3702982382492287,
                        0.5269233400557554,
                        0.5994427005040123,
                        0.1759999517545406,
                        -0.4373157400701011,
                        -0.33643474753684877,
                        0.6727291109610678,
                        1.0924214193951605,
                        0.6934014248736958,
                        0.20137639395011148,
                        -0.7840122623349102,
                        -0.4394290497499529,
                        0.8105023813470349,
                        0.23810707813919182,
                        0.5959573001553694,
                        -0.48062701547124054,
                        -0.46390946134441097,
                        1.046840174612591,
                        -0.5094648768331352,
                        -0.8627607603117974,
                        -0.0028344669888134555,
                        -0.25883682196830404,
                        0.38853988102791026,
                        -0.09910110934706307,
                        0.5520743244158216,
                        -1.0007489906233344,
                        0.5224379691140015,
                        -0.45465668471909987,
                        -0.7115275579252771,
                        0.28104203942094697,
                        0.7289432954954485,
                        -0.519074669918883,
                        0.11373493424294295
                    ]
                },
                {
                    "bias": -0.21188155026359282,
                    "weights": [
                        0.8720222603138258,
                        -0.9536304031924447,
                        -0.07131360088051376,
                        0.7454720639116019,
                        -0.1658937567910005,
                        -0.002031695372793463,
                        0.15191608452568658,
                        0.4708533675966433,
                        -0.639147915371165,
                        -0.3226609608963269,
                        -0.23470329641093088,
                        -0.26053538787827424,
                        -0.5227014312034801,
                        0.5316454457040097,
                        0.23744966040962234,
                        1.1098648473188286,
                        -0.038963303314914946,
                        -0.0026103227843680132,
                        0.12082715244342676,
                        0.6007910388666969,
                        0.20417104320045287,
                        -0.2259377279816348,
                        -0.026179434137761748,
                        0.3889930804990994,
                        1.3161737485024019,
                        -0.1907300457797892,
                        -0.32833066041557574,
                        -0.3513558145150377,
                        -0.04973501867650389,
                        1.1107121308419927,
                        0.04071277094166337,
                        1.125238312107519,
                        1.6394431659662536,
                        1.573607870315912,
                        0.603081131315995,
                        -0.4785923766692041,
                        1.3074949461965497,
                        -0.1845327091801241,
                        0.1982620624172467,
                        -0.5954239046786831,
                        0.28709348844846067,
                        0.19719733326643832,
                        0.4219170077714282,
                        -0.2496132980144611,
                        -0.2889276056330421,
                        1.3076274957457308,
                        -0.3280276096050525,
                        -0.4266226920028581,
                        -0.2945049177293093,
                        -0.2679058630687903,
                        0.4882474659899488,
                        -0.41080744787968576,
                        0.1079764276772869,
                        -0.42515808166207125,
                        0.8718867762645185,
                        -0.5219345093315472,
                        -0.10042089927740405,
                        0.6660009249570757,
                        0.3364629343811194,
                        0.9518147168095639,
                        -0.433102914111014,
                        -0.3414278777158788,
                        0.4155629017240501,
                        1.467302018638172
                    ]
                },
                {
                    "bias": -0.052907608253444635,
                    "weights": [
                        -0.11060938606363402,
                        -0.3780320194111112,
                        -1.028258065917723,
                        0.33306991650898665,
                        -1.6589013024888835,
                        -0.1128832366083177,
                        0.6434785719526042,
                        -0.23349625213864036,
                        0.37452639503194374,
                        -0.5921283274387658,
                        -0.2882887273263765,
                        0.585138595665565,
                        -0.26360027715140905,
                        0.7134200024670315,
                        0.10396487015725644,
                        -0.5219040903017622,
                        0.6921362671783003,
                        0.2936525220303792,
                        -0.4643283172472405,
                        1.2649254751665628,
                        -0.19948821199358924,
                        0.19816547695917885,
                        -0.028250351668425558,
                        0.16836225322483017,
                        -0.5219842258051632,
                        -0.47056856442171124,
                        -0.2174567992207316,
                        0.8536439047903441,
                        0.4474085803939073,
                        0.06616498464723769,
                        0.19995575389125259,
                        0.44172440249616285,
                        -0.3325626337255211,
                        -0.0019254812533939791,
                        0.21287105920745103,
                        -0.06049204362374638,
                        -1.6413276097113485,
                        0.9671541403156205,
                        0.667917767739518,
                        0.25290330614955137,
                        0.4429786976740158,
                        0.054285002521584566,
                        -0.29030949882458834,
                        0.5127497727322565,
                        0.3507691631990123,
                        -0.10062599010916186,
                        1.032796124926035,
                        0.3175137137995465,
                        -0.6322251877363663,
                        -0.002038544863532915,
                        -0.13583636779367625,
                        0.6087216844694053,
                        0.6779212881915437,
                        -0.9049777133174793,
                        0.18054115850000588,
                        -0.13201817461472753,
                        -1.5066141345686241,
                        0.9189265206263704,
                        -0.38867524647498974,
                        -0.22995998366315595,
                        0.27238633001150214,
                        0.1423968701522067,
                        -0.9164602578391141,
                        -0.18759036304885607
                    ]
                },
                {
                    "bias": 0.617225982825284,
                    "weights": [
                        0.2742171432502595,
                        0.21926957111026837,
                        -1.2888363654694293,
                        -0.5022159171126993,
                        0.5915180832212739,
                        -0.057657113615034644,
                        0.5970458493904307,
                        0.16007426816502135,
                        -0.12545976877698994,
                        0.29692245572677545,
                        -0.17959885912658982,
                        -0.7308863865508027,
                        1.1690217097523588,
                        -0.20984378148122046,
                        -0.3385102435888332,
                        -0.11016362946332871,
                        -0.7007773670025004,
                        -0.4673517251581755,
                        0.3847974508925358,
                        -0.8759530402870126,
                        -0.8476019677232624,
                        0.7234310715691482,
                        -0.5489189942613597,
                        -0.536170053786993,
                        0.21047587331750178,
                        0.24897556896285963,
                        0.700302990940646,
                        0.1516140478282802,
                        0.5063930089942006,
                        0.338075678818092,
                        0.045688578437580174,
                        0.5204726523561645,
                        0.45682138048922233,
                        0.03488596899081575,
                        0.6395230800008405,
                        -0.6886986577053384,
                        -0.4541340491735415,
                        1.0580923220181664,
                        0.3426659366580214,
                        -0.8381594153533037,
                        0.13143326435448746,
                        0.3977451123047285,
                        0.3618691034044215,
                        -0.5982782128285093,
                        0.20204444596509002,
                        0.8032653692601126,
                        -0.28649881509088104,
                        -0.30140590146677015,
                        0.5648237906096496,
                        -0.5828168035779396,
                        1.2599485699109776,
                        -1.1314918616773761,
                        0.10857891714095759,
                        -0.4551355733188105,
                        -0.4086976249630986,
                        0.14574165281105778,
                        0.11366514720195331,
                        -0.3296869118773303,
                        -0.34635736418777696,
                        -0.15863157139235973,
                        -0.08108640489197816,
                        -0.8295435636900809,
                        -0.17529142134356623,
                        0.14089217149389682
                    ]
                },
                {
                    "bias": 0.42230221277355273,
                    "weights": [
                        -0.45676797194023366,
                        0.3221922012005846,
                        0.8319423797494687,
                        -0.21260847103069785,
                        -0.8073506153880873,
                        0.6211862283233631,
                        0.09382316599751264,
                        0.21365898905314656,
                        0.7427368901430613,
                        -0.9976661158659614,
                        0.43793813925660946,
                        0.15221025960659856,
                        0.08018140944880693,
                        -0.2785423871830967,
                        -0.7946176860991175,
                        -0.5728745559322109,
                        0.08999472415809895,
                        1.1790019623635182,
                        -0.12405836263987978,
                        1.0131732725826879,
                        0.31359620870678717,
                        -0.08929042827893731,
                        -0.39656211530076557,
                        0.3743386537255312,
                        0.08827715112569665,
                        0.2886941776679837,
                        -0.22360478659761213,
                        0.39078511361349233,
                        0.10118645197750065,
                        -0.8186690476506872,
                        -0.18720214013018396,
                        -0.5372440644887292,
                        -0.7037580589364516,
                        0.09692508861244595,
                        -0.28035525888895063,
                        1.0665589533930604,
                        0.32469359511377316,
                        -0.13836897899735148,
                        -0.8889702266582826,
                        0.22371236685355858,
                        -0.3750392021052316,
                        0.6670313741095045,
                        -1.362344015856142,
                        0.7303744150569693,
                        -0.5995828177320389,
                        1.5708250847470357,
                        1.1882864616624598,
                        -0.22853903567192763,
                        0.12491157468982739,
                        0.2012415220331534,
                        -0.5584989004176184,
                        -0.6283114881635267,
                        -0.38418357854897833,
                        0.3231785070103177,
                        0.8168731010644597,
                        0.6814951472653161,
                        -0.38277734955416876,
                        0.04616451573075281,
                        -0.8156954199843975,
                        -0.5218342686201782,
                        -0.5573376929520346,
                        -0.6916571986587318,
                        -0.3600628929336439,
                        -0.24994770959417523
                    ]
                },
                {
                    "bias": -0.23491033133026962,
                    "weights": [
                        -0.3869287024909651,
                        -0.40354869765632084,
                        0.574961140817746,
                        -0.4711036911944193,
                        -0.022990747253990945,
                        -1.2617650776508988,
                        1.0427494119046208,
                        0.8354957062705128,
                        0.48847656360074115,
                        0.17585959706916715,
                        -0.3540992087966621,
                        0.2839319653909469,
                        -0.9291202039438645,
                        0.3521252575300747,
                        -1.2227476238284805,
                        0.34275658214480964,
                        -0.5418594073131369,
                        -0.2821244982526999,
                        0.44152309399034423,
                        0.6858599179410136,
                        0.01236156365924218,
                        0.39872758824244214,
                        -0.7274535879622427,
                        0.6877888265135093,
                        0.15448753132212983,
                        -0.3986635793838079,
                        0.665007183317945,
                        0.10555600009431026,
                        0.492658664545022,
                        0.027163200577799265,
                        0.3414096595277223,
                        0.2613104537114095,
                        -1.162682943432128,
                        0.27429022977449885,
                        0.4351469315687271,
                        -0.12794103544600866,
                        -0.050635845714370575,
                        -0.0652340042585865,
                        -0.2986816241439082,
                        1.0688467758403677,
                        0.04546908081887424,
                        -0.39031497630942547,
                        -0.14688507815430363,
                        -0.34759439829294514,
                        -0.06825532050952704,
                        -0.5272104080668294,
                        0.12731353448355803,
                        0.4840530639122648,
                        -1.0866265791903413,
                        -1.151602179447734,
                        1.3969819183665022,
                        -0.32430725675128397,
                        -1.5898656468058765,
                        0.43279838631953826,
                        0.7717921953427187,
                        -0.5595822027381497,
                        0.9054253698413774,
                        0.33962348771735307,
                        -1.0243369397336302,
                        0.3251811462265769,
                        0.20676172612796284,
                        -0.35560368013685073,
                        -0.358324974125143,
                        -0.20599463430179604
                    ]
                },
                {
                    "bias": -0.012746774619183388,
                    "weights": [
                        0.5371412332974657,
                        0.0913297991078165,
                        1.0131972275767749,
                        0.3422357104317594,
                        -0.027591101454588818,
                        -0.2786152650149143,
                        0.1312845054610533,
                        0.1404202378517791,
                        0.5054620719257967,
                        -0.1263433132812686,
                        0.005404597997598848,
                        -1.2801921507819882,
                        0.26024833115277,
                        0.10605780848442141,
                        -0.507172981300217,
                        0.3821184044493253,
                        -0.4045604724169677,
                        0.8333036958735138,
                        0.16483781707939377,
                        -0.22831307978176135,
                        -0.3259882786943735,
                        0.7994516798377919,
                        -0.17980976422343364,
                        0.28294330531499867,
                        -1.1349997985412315,
                        -0.1488568000727276,
                        0.27401630340344246,
                        -0.23218060418554046,
                        0.45467366177724533,
                        0.09521999656366166,
                        -0.0916978085709709,
                        0.4465667999924705,
                        -0.10486827682415356,
                        -0.08821430615943318,
                        0.5461859127423417,
                        0.23135924689161774,
                        0.5547234827616555,
                        0.29350423417595045,
                        0.9144345765855706,
                        0.4108342663130892,
                        0.21412193400536583,
                        -0.5477679363732361,
                        -0.6456930754405841,
                        -0.9286926388691201,
                        -0.09915562982642329,
                        0.529910753076845,
                        -0.03186663428646097,
                        -0.44112584766862994,
                        -0.6948390250385982,
                        -0.06104120340810473,
                        0.16891041960728465,
                        0.2753175633041811,
                        -0.3634422379551598,
                        -1.0782800462649254,
                        -0.276691438799317,
                        0.6171789624611199,
                        0.4176983928245378,
                        0.14698887668700186,
                        -0.6310157093759114,
                        0.11577436453179252,
                        0.7985490914343638,
                        -0.49082110473419405,
                        -0.1458944969595124,
                        -0.5223867522820997
                    ]
                },
                {
                    "bias": 0.15446144748625532,
                    "weights": [
                        -0.6211773539481805,
                        -0.742924541308824,
                        -0.07189740549589435,
                        0.008580627860602486,
                        0.8081402071232218,
                        0.7673077343587955,
                        -0.30145527257517085,
                        -0.2347082019908226,
                        -0.009792315677553454,
                        -0.44776895377748216,
                        -0.6608671626669237,
                        -0.7946765748542639,
                        -0.15287595691557843,
                        0.4440087798204322,
                        -0.5615974807147899,
                        -0.7705992198876567,
                        -0.09716812971999307,
                        0.23707621984891364,
                        0.11688613150207106,
                        -0.38026161834066086,
                        -0.15610168759834667,
                        -0.34159732855464175,
                        0.03225453322694227,
                        -1.0779218696519748,
                        0.609770327636941,
                        0.01909953522516972,
                        0.6609012410926575,
                        -0.781912540976536,
                        0.23017120400820845,
                        0.6951896787385479,
                        -0.007457453633708866,
                        0.5352520746666299,
                        -0.3247679998305306,
                        0.2932568626458561,
                        0.21413848156655657,
                        1.0643972134208175,
                        -0.8263222136226083,
                        -0.9977342830906812,
                        -0.1484804371679225,
                        -0.38358629188277615,
                        0.666835863317248,
                        -0.7308812294855375,
                        -0.31875104671205456,
                        -0.5448870897866274,
                        -0.3437704711312086,
                        -1.1669517543478407,
                        0.762104802493514,
                        -0.2923408939868649,
                        0.15835842343872225,
                        -0.22380599040879173,
                        1.3671393217656953,
                        0.12778006655418206,
                        0.7493662290404866,
                        -0.8843363463333325,
                        -0.4060874797008117,
                        -0.08964584181556928,
                        -0.4412431354160109,
                        -0.44238150042910823,
                        0.3592700412520258,
                        -0.20507357272609059,
                        -0.7437759384221987,
                        -0.44754890869039454,
                        0.2855939372710672,
                        -0.15085016913125093
                    ]
                },
                {
                    "bias": -0.7276868835899989,
                    "weights": [
                        -0.010680478068760324,
                        0.44533876290661956,
                        -0.8988854801784536,
                        0.3532416242504113,
                        -0.41398730884891033,
                        -0.24579054473073336,
                        -0.9384897733113805,
                        -0.5171267987625296,
                        0.04950330042498374,
                        0.030459723596665544,
                        -0.6691738556800426,
                        0.178126699453978,
                        0.12559011326219138,
                        -0.12508563761672037,
                        0.037195353008418086,
                        -0.6342301957938394,
                        0.3220149908060978,
                        0.03561379719138008,
                        -0.6658707465977398,
                        -0.27239069597391236,
                        0.026223313132704346,
                        1.055412013536618,
                        -0.012366196687345996,
                        0.42296002259774046,
                        -0.4427911844244488,
                        -0.6776299568214608,
                        0.44572683914322775,
                        0.010807228829342153,
                        -0.5461387580978714,
                        0.582162265466536,
                        0.001598542506097353,
                        -1.205321123803161,
                        -0.11428808869702278,
                        -0.11049466520009238,
                        -0.47566871323754817,
                        0.12231746999269655,
                        0.16964318719671448,
                        -0.1978207641222148,
                        0.5074485824679672,
                        0.741105622632183,
                        0.6219960817753761,
                        0.5720135954551644,
                        -0.16499651984820907,
                        -0.7091674174783074,
                        -0.29658789735316116,
                        1.3755907168643824,
                        -0.2677754898874061,
                        -0.5112432646365392,
                        -0.10501392149955313,
                        -0.25986252237067786,
                        0.6083311026862714,
                        0.060128233597145114,
                        0.4781422266383504,
                        -0.644527096448742,
                        -0.2809891706791608,
                        0.22509134087066734,
                        -0.49262675683425955,
                        -0.5714140495864124,
                        -0.15734191250798812,
                        -0.873427467743904,
                        -0.6037472863053647,
                        0.3659692703077347,
                        0.12784578263273774,
                        0.05975637217829226
                    ]
                },
                {
                    "bias": 0.4737698347078968,
                    "weights": [
                        -0.5958024060300356,
                        1.0006755620351617,
                        0.33404750927024085,
                        0.3465286753288737,
                        -0.22948804445702883,
                        0.24206939489694115,
                        0.5034489189898688,
                        -0.13669445589342172,
                        -0.05076376920876116,
                        -0.16922019155354,
                        -0.561588577470492,
                        0.0023670035692479052,
                        -0.2274696755106777,
                        0.35742485187874284,
                        0.6545054255486686,
                        -0.16728622243176444,
                        -0.1479905602119037,
                        -0.46646850303085574,
                        0.8476135975611963,
                        0.04513161823291928,
                        0.30661642489361723,
                        -0.5966405292864483,
                        -0.9494657731486549,
                        0.9772493182113826,
                        -0.01838849697661632,
                        -0.9298744507283921,
                        0.42142900086793034,
                        -0.5734835001348473,
                        0.07125070169759579,
                        0.19060226331972877,
                        0.673758540410497,
                        1.439904789999511,
                        0.10529016275454804,
                        -1.1151292024407697,
                        -0.4497573736883339,
                        -0.30112607197606994,
                        0.48139457895810656,
                        -0.8111527323444163,
                        -0.8828972308880516,
                        0.06618638453068412,
                        0.8242435065104521,
                        0.12304135122208582,
                        0.18945328669634887,
                        -0.5000984657785406,
                        -0.8958450238246871,
                        -0.18096157834473098,
                        0.48780157978364175,
                        0.010571639264106536,
                        -0.33154880392917413,
                        0.2663041293820094,
                        -0.32799132420238714,
                        0.17575277546520493,
                        0.312988037214846,
                        0.20921945076334972,
                        -0.839491092054237,
                        0.24852166532608921,
                        -0.15014012078043648,
                        0.08775110413863983,
                        -0.20702764365692133,
                        0.04316071757450679,
                        0.2814572567052816,
                        0.3890204811308797,
                        -0.4626120240408908,
                        -0.03566890370829706
                    ]
                },
                {
                    "bias": -0.7300874058238348,
                    "weights": [
                        0.23717410935049776,
                        -1.2996719460125599,
                        0.30945830053856654,
                        -0.5593260005477421,
                        -0.10859509037226507,
                        0.6216871120562414,
                        -1.2035132691655728,
                        0.8503323674947957,
                        -0.2825310333061034,
                        -0.3026947302917623,
                        -0.8030130911057438,
                        -0.9977073822604385,
                        0.38200382480593037,
                        0.17824059695618658,
                        -0.21976155495070204,
                        -0.4231165422501402,
                        0.10530865679354924,
                        -0.34254596553804145,
                        -0.40940873582756865,
                        1.203431513798792,
                        -0.22578993224746302,
                        0.6106518306102815,
                        1.0137654016245272,
                        0.07775045505777484,
                        -0.5282049787979561,
                        -1.098164565899471,
                        -1.2355364013231787,
                        -0.4867138058842487,
                        -1.0969840918664444,
                        0.10718303571462737,
                        -0.15824347087427654,
                        0.048625102407524295,
                        0.5359751732436525,
                        0.5215348856477767,
                        0.09416802225091131,
                        0.021015310063606407,
                        0.009835722087847373,
                        -0.26618108199664864,
                        0.4310229720243925,
                        0.5386416280149149,
                        -0.4932735135087236,
                        0.6025223198947611,
                        0.8837150325254576,
                        0.31602471733761417,
                        -0.7602711866176883,
                        -0.7359173455883705,
                        0.5114419664287977,
                        0.33289938593584933,
                        -0.8384095066761031,
                        -0.33169610643320424,
                        0.10415249359122934,
                        -0.7819093302229866,
                        0.02028252518243312,
                        -1.1402692584753342,
                        1.040617500584458,
                        0.09279534291775032,
                        -0.42045359003978056,
                        0.48995945394392115,
                        0.4050764065855995,
                        0.8736052817576039,
                        0.02025926609964171,
                        -0.3421069879556978,
                        -0.3662612941488972,
                        0.4806052344030901
                    ]
                },
                {
                    "bias": 0.2605708667727284,
                    "weights": [
                        -0.6304539208891289,
                        -0.10850697640937002,
                        1.0679815435718119,
                        -0.6829250108584319,
                        -0.6199642446241972,
                        0.6953639775347594,
                        -0.491452289489963,
                        0.30236887143422847,
                        -0.40322044019824255,
                        0.7375366198939712,
                        0.2698218903911455,
                        0.06396212264986127,
                        -0.8110862934185255,
                        -0.3115805152053204,
                        0.6974122244951038,
                        1.2384096029736427,
                        0.3812077853912036,
                        -0.356634603324953,
                        0.1310918170004836,
                        0.9245582144071416,
                        -0.003069195437306993,
                        0.8306467875644297,
                        -0.045608834516258745,
                        -0.9283167951120488,
                        0.4530654374605961,
                        -0.444024614181576,
                        0.22911111283818797,
                        -0.20639758792691343,
                        -0.5444354477453461,
                        -0.29548123061424875,
                        1.843546952591832,
                        -0.19824034195083406,
                        0.5954454870621666,
                        -0.8121318905457129,
                        -0.11788904381562804,
                        -0.121506068660618,
                        -0.014000522342490385,
                        0.5015831211124356,
                        0.6633365938551848,
                        -0.3963377017847602,
                        0.31241590161650246,
                        0.8506506720230271,
                        0.4090362806379478,
                        0.2596394854739117,
                        -0.7302219489000618,
                        -0.37887675106538043,
                        -0.5857230117844705,
                        -0.8105434125358251,
                        -0.3628107770453103,
                        0.5979226135357392,
                        -0.009489827138013773,
                        -0.9303651004324041,
                        0.16978469713098904,
                        0.6780353269774636,
                        0.032028968916467754,
                        -0.46921162506724423,
                        -0.8562645644309812,
                        -0.11630465038083765,
                        1.1356706989100962,
                        0.6302316900518927,
                        0.013111378700745913,
                        -1.3235499035717735,
                        0.36141978721377777,
                        0.5497376163279939
                    ]
                },
                {
                    "bias": -0.074003590743351,
                    "weights": [
                        1.2423369969736842,
                        1.0812318402195609,
                        0.026576462380224042,
                        -0.7893143978707164,
                        -0.600622594605736,
                        -0.0825027464487687,
                        -0.9404535570436818,
                        0.10198077164215927,
                        -0.3842097800741986,
                        -0.5156232196095176,
                        -0.6030498317768409,
                        0.44272964607812526,
                        0.6204073348974781,
                        0.5395269229923444,
                        0.3421706322516419,
                        0.6094974861344997,
                        0.088605404844397,
                        -0.3212880843018582,
                        0.47769507589759685,
                        -0.11384958519461419,
                        0.5202940959805069,
                        0.7229504346683839,
                        -0.3725719297050983,
                        -0.6889138284375765,
                        -0.4734840845863776,
                        1.083112161112649,
                        -0.28661283713501706,
                        0.332896290044013,
                        -0.6888412678649747,
                        -0.023716957876927854,
                        1.2035393394568321,
                        -0.320405264258391,
                        -0.524784250752599,
                        -0.5491967168620223,
                        -0.0983799414470774,
                        -0.8394289025005541,
                        0.9107491848184741,
                        -1.2653908025035425,
                        -0.5946876206962329,
                        0.30763234778699183,
                        0.22935027501412625,
                        0.42942538744583403,
                        0.2691254675362914,
                        0.47824043252481385,
                        -0.18943807255173875,
                        0.3089727735329506,
                        -1.21774588180152,
                        -0.45493389595716505,
                        -0.42268227384935786,
                        0.9217400523804811,
                        -0.5000348174658323,
                        -0.6431721825169856,
                        0.07043383048824581,
                        -0.8813068385857894,
                        -0.09626929481563337,
                        0.7336626200651502,
                        0.4552526647024,
                        -0.27642918502070557,
                        0.45920568044130716,
                        -0.0029144267142283964,
                        -0.20182217579424758,
                        0.552738855318852,
                        0.6159268357720674,
                        0.08297837711303663
                    ]
                },
                {
                    "bias": 0.5359947005876152,
                    "weights": [
                        0.18008269362029455,
                        0.9108759228756803,
                        0.6462662883613275,
                        0.9721119402848762,
                        0.242553300157181,
                        0.20558078901662696,
                        0.03727051615028021,
                        1.112949264036658,
                        -0.2039155457659214,
                        -0.3130798505581571,
                        -0.2734759041101412,
                        0.4221311312964672,
                        0.1700327730346316,
                        -0.08494153954457323,
                        0.48399930137716984,
                        0.2530330331838544,
                        0.19697791512063478,
                        0.3087499628086351,
                        -0.2873957553862827,
                        0.06005787214059595,
                        0.4377411505484738,
                        0.4155797134685117,
                        0.13844527401399698,
                        0.5023700972124787,
                        -0.6522256361351111,
                        0.42383329439702655,
                        -0.522817001003139,
                        -0.895233555971522,
                        -0.3069794583912681,
                        0.653709320752664,
                        -1.0506307849094987,
                        -0.09897488311056053,
                        0.22872963008385477,
                        0.08011251560532001,
                        1.4604046819235474,
                        -0.30077937325452564,
                        -1.3189359396801783,
                        0.3602086731712024,
                        0.6281055335150454,
                        0.38095635319669785,
                        0.1597392620497008,
                        0.005414899663379158,
                        0.01108648652203556,
                        -0.7132400848256057,
                        -0.0499053550321147,
                        -0.2161926716903566,
                        -0.8216683337536417,
                        -0.4892736740090418,
                        0.4211255844742318,
                        0.19873366326710143,
                        0.8129671174860977,
                        -0.3712428571200834,
                        0.1648148458132354,
                        0.1929346274598293,
                        -0.4471674213521791,
                        -0.4580616994357889,
                        0.10185165516860006,
                        -1.202954007084705,
                        -0.2573330715598357,
                        0.6389492944805424,
                        0.5615358791643059,
                        1.8349578391252024,
                        0.4524334043886239,
                        -0.3608606090829051
                    ]
                },
                {
                    "bias": -1.4068963507218313,
                    "weights": [
                        -0.5526358159325039,
                        -0.4642791416267049,
                        0.37241856785851013,
                        -1.1549173414403087,
                        0.12315685355968065,
                        -0.630210002440812,
                        0.7543445952405659,
                        0.042288394435037985,
                        -0.14824065315971274,
                        1.0280567258348452,
                        -0.6735557497176767,
                        1.1807579742581253,
                        0.536533062967088,
                        -0.312087339970774,
                        -0.4805473340337354,
                        -0.4111757738218158,
                        -0.2529226807729259,
                        -0.3117344804936463,
                        0.6989860900048968,
                        -0.8152783670116366,
                        0.7486587656304555,
                        -0.20296274138381815,
                        0.8556246631503126,
                        0.5182105850873934,
                        -0.0642361259596423,
                        -0.3795703254702254,
                        -0.8904138638084006,
                        0.11746709870118849,
                        0.5360870718433095,
                        -0.6342126406598688,
                        -0.30544411639004104,
                        -0.11794215823161883,
                        -0.40296463385883063,
                        0.26543491906384353,
                        -0.1599078592458122,
                        -0.30717345846426697,
                        0.05463002979993109,
                        -0.16513799353921715,
                        -0.6335208157138982,
                        -1.1204917517205717,
                        0.07215794294716812,
                        -0.5029045222268914,
                        -1.6914394623429687,
                        -0.10215508738926239,
                        0.7623932066847358,
                        -0.14313863562699114,
                        0.15858169765995522,
                        0.1872703143384093,
                        -0.13601473035416922,
                        0.14508126861544235,
                        -0.8926982365791468,
                        0.9892615250337959,
                        0.02211110296993142,
                        0.7883783989867751,
                        -0.4414765048089475,
                        -0.10241693387480032,
                        0.6351476099948461,
                        -0.46964154527472873,
                        0.21789325096356285,
                        0.6346005137773606,
                        0.041147258329678416,
                        -0.12000055037198532,
                        0.79029192587284,
                        0.13646921805829532
                    ]
                },
                {
                    "bias": -0.6708803126534428,
                    "weights": [
                        -0.17932004747497976,
                        -0.5766536382187372,
                        -0.16621413700565651,
                        -0.9412388339299611,
                        -0.4291939196217906,
                        0.16993194652249116,
                        -0.7451776390573757,
                        -0.12515470717627886,
                        -0.40177365244520324,
                        -0.15392419737033786,
                        0.0028406141135078333,
                        0.2172178550568303,
                        0.2648637658211809,
                        1.195440566526734,
                        -0.37041818797881343,
                        -0.7473037201387951,
                        -0.08721601763562298,
                        1.2095042293521172,
                        -0.36601929960718693,
                        -0.3315461487978835,
                        -0.7772067332915238,
                        0.21170610856062408,
                        -0.19048235497692637,
                        0.8620120194487282,
                        -0.15495617200104977,
                        0.9648386406463553,
                        0.47088497041132127,
                        0.2631867914778422,
                        -0.38938081811572756,
                        -0.35840744614570236,
                        -0.1688964408139836,
                        0.08474748419438838,
                        -0.26955913226347167,
                        0.8022481067668212,
                        -0.03483127648640716,
                        -0.23653033535162632,
                        1.6618562077029786,
                        0.4278325793551429,
                        -0.11426860548389942,
                        0.5128283461617336,
                        0.18271314961502785,
                        0.7349094571098689,
                        -0.46599685545979147,
                        -0.12796721327121408,
                        -0.006351527752266717,
                        -0.1672347609275151,
                        0.27478493493276324,
                        0.8174632860009596,
                        0.6239962824290948,
                        -0.30478080741479197,
                        0.02789947556478506,
                        -0.34458917407787315,
                        -0.1400984123137965,
                        0.20457464416343762,
                        0.1519324304933587,
                        0.1650511575380949,
                        -0.3317153140893941,
                        0.7262102704789214,
                        0.1365272443871266,
                        0.009042339339371264,
                        -0.26847246537595587,
                        -0.7305134506297793,
                        1.096756313431051,
                        0.3231586075860062
                    ]
                },
                {
                    "bias": -0.3017242718187902,
                    "weights": [
                        -0.15708244624708928,
                        1.0231976171294057,
                        0.9079049224930696,
                        -0.59538911473508,
                        -0.11109800841225104,
                        1.0448126246114058,
                        0.1462322987168795,
                        0.9297982597764731,
                        0.33695003959540004,
                        -0.32917688190551697,
                        0.5252348008035046,
                        -0.5527392918301299,
                        0.5547642423278829,
                        -0.14987198036953853,
                        0.9460369107351352,
                        -1.0418201196542483,
                        -0.3098000350718072,
                        0.5277405862527829,
                        0.868968560885522,
                        -0.5752714288946987,
                        -0.4246378783544259,
                        0.520731029981353,
                        -0.14580608830369007,
                        -1.0062024859171708,
                        -0.18424122064149318,
                        -0.6687868023913718,
                        0.4287524578211559,
                        0.24099313727801683,
                        -0.6879912783889469,
                        0.5183740858400365,
                        -0.25150474057940764,
                        0.8624409573847422,
                        0.8915209136906843,
                        0.7725346544538261,
                        0.811123512490896,
                        -0.7392914364956372,
                        -0.11606079954377899,
                        -0.24382073089814016,
                        -0.5865466610577873,
                        0.9033727953330156,
                        0.10284447678544523,
                        -0.7461530183607874,
                        -0.2849868708207048,
                        -0.1272878920695309,
                        -0.3262109144477227,
                        0.12362258804230164,
                        0.33319808074749246,
                        -0.3704470845463976,
                        0.31961913150745286,
                        0.12503487395947882,
                        -0.20627711355862324,
                        0.3791176538949439,
                        0.07749790722163719,
                        0.734120195241659,
                        0.11321329439142715,
                        0.9008372765552507,
                        -0.8385574176790298,
                        1.2633192830180802,
                        -0.6570408279607678,
                        0.5551857626259318,
                        -0.4842046186895432,
                        -0.3968683053635235,
                        -0.3352058351684427,
                        0.9424524658958493
                    ]
                },
                {
                    "bias": -0.11841662350136906,
                    "weights": [
                        -0.04609867519397187,
                        -1.1878280989430794,
                        -0.28539445249469175,
                        -1.060728962716736,
                        0.6021607233188497,
                        -1.0544157297948473,
                        -0.3370921444436168,
                        -0.49402394151802065,
                        0.32718322327469307,
                        -0.24288042283686026,
                        -0.5888514429695497,
                        -0.18394798272961446,
                        -0.22651981501622254,
                        0.007969327331583509,
                        0.10863531654249539,
                        -0.018918831639686245,
                        -0.1285834265035204,
                        -0.6280725782461583,
                        0.5643015643444487,
                        -0.6863106826051376,
                        -0.7133285060296559,
                        -0.5846986450857626,
                        0.40292308891339,
                        0.08403663641106046,
                        0.7655240201013809,
                        -0.22677316871224384,
                        -0.11420427552000936,
                        0.906389461917533,
                        -0.7297641504116925,
                        -0.479414803833853,
                        -0.30198979516971836,
                        -0.5703612944493379,
                        -0.11443968180223298,
                        -0.21264453731944047,
                        0.5474262202366111,
                        -0.38229228914313845,
                        0.40382390179724076,
                        0.11699393759222929,
                        -0.5479549490710167,
                        0.09783521995130803,
                        0.1694362184583837,
                        -0.4609984200414978,
                        -0.6561710792248021,
                        0.01616752373906083,
                        0.10587315384196191,
                        0.22332819714769375,
                        -0.39851150633491733,
                        0.10977227865252166,
                        -0.03283442650321705,
                        0.22397512598819924,
                        0.08769828868954477,
                        1.319317983957482,
                        -0.7195120464416287,
                        0.311111755197666,
                        0.01656102854519137,
                        -1.0464877213196973,
                        -0.05793084075283443,
                        -0.9765274063550247,
                        -1.18477655295412,
                        -0.8870223976036491,
                        -0.7638276066090627,
                        0.408314827306165,
                        0.10706710416695053,
                        0.2141294852677291
                    ]
                },
                {
                    "bias": 0.6517304147963313,
                    "weights": [
                        -1.3164608946125602,
                        0.5515885639204641,
                        1.1513421995645237,
                        0.37567595883537563,
                        0.026668073729125774,
                        -0.43979121208763394,
                        0.41826115282736565,
                        0.6114196935297898,
                        0.9536757004459413,
                        -0.8156745405369956,
                        0.9853129390275875,
                        0.5078926317691098,
                        -0.011779307025295616,
                        -0.40784385593880296,
                        -0.5319654731581249,
                        -0.6066040976499574,
                        0.2281964571617502,
                        0.5590734683805298,
                        0.3126051775127798,
                        0.6732435634481058,
                        -0.6210470361168166,
                        -0.28573766973087167,
                        0.19953550822601865,
                        -0.1678961424435513,
                        0.6085116301767597,
                        0.11385430888600717,
                        -0.3046223378823382,
                        -0.5239482526918706,
                        1.5876410688378946,
                        -0.39799326884407926,
                        -0.686218784553114,
                        0.09019438459473211,
                        -0.0765474214135152,
                        -0.1619183605926745,
                        -0.7738051810947459,
                        -0.028798589212885126,
                        0.09393217113071983,
                        -0.5812427585880229,
                        0.4281810037574317,
                        -0.3660969014423308,
                        -1.0439744557822273,
                        0.8538016740471146,
                        0.589284537874525,
                        0.29434222481189076,
                        -0.318186059957031,
                        -0.3047613609329415,
                        0.3864413550028893,
                        0.5086562841029876,
                        0.4619698758459841,
                        -1.0647978087807166,
                        0.18485735047116283,
                        0.17266375256363667,
                        -0.6730852982195141,
                        0.13199707592414273,
                        0.2159190965465315,
                        0.606241459063885,
                        -0.06699018328810608,
                        1.054069807679169,
                        0.3739181016411363,
                        -0.8176100516351248,
                        0.9575401069353282,
                        0.18904888314965318,
                        0.15698097652185744,
                        -0.48010740977684396
                    ]
                },
                {
                    "bias": -0.3148309479237856,
                    "weights": [
                        0.4327853339275889,
                        0.2552213442043397,
                        -0.35264095911373755,
                        -0.30509481352313356,
                        0.044443019235102854,
                        -1.0532305334629815,
                        -0.6484774080293959,
                        -0.7121653455134698,
                        -0.47834763894538695,
                        -1.2475221793794056,
                        1.0223421852096366,
                        -0.04302229591491841,
                        1.083127241096016,
                        0.09542295876871204,
                        0.969385708110357,
                        -0.10342951106540021,
                        0.4298342759567742,
                        0.8608149925523304,
                        -0.030374550540363504,
                        -0.3456113295249187,
                        -0.16638865098493727,
                        0.32331301530485174,
                        -0.03305422017448273,
                        -0.333904167801043,
                        -0.7546992280650666,
                        -0.04200837265784718,
                        0.3320478851499057,
                        -0.8921997170182494,
                        0.10510641275151815,
                        -0.6746328818543985,
                        0.3514393385461501,
                        -0.4971550721456991,
                        -0.17768902683470153,
                        -0.35749479536222617,
                        0.542637204476184,
                        0.6123863871170924,
                        -0.0897743887855396,
                        0.7844990816552687,
                        0.11866954254300432,
                        0.1362467563015924,
                        0.6900255916019098,
                        0.7555460049007586,
                        0.454334962580909,
                        -0.20524890354785852,
                        0.0884375683445387,
                        -0.1409023254170659,
                        0.17978688716543012,
                        0.038751493589006786,
                        -1.0614607088881787,
                        -0.28873086039442014,
                        0.051431444532237386,
                        -0.6947685337593017,
                        0.32166330216764727,
                        0.047013259718210076,
                        0.3674177757845327,
                        0.5518790425851193,
                        0.9359604753589638,
                        -0.2051890585193864,
                        -0.5337983490470131,
                        0.3482266030867362,
                        0.3495958593827766,
                        -0.5588505452910254,
                        -0.22033436485370236,
                        0.08398696667125455
                    ]
                },
                {
                    "bias": -0.27902505206116707,
                    "weights": [
                        -0.058655695335113694,
                        1.29449462157572,
                        0.7987691233993163,
                        -0.3213281996365751,
                        -0.1675396974666798,
                        -0.00549658427198256,
                        0.7997597030079557,
                        -0.5072778173243044,
                        -0.7734003932076562,
                        -0.4622822671752801,
                        -0.4189208805447323,
                        0.3763925375829146,
                        0.5896127094349952,
                        -0.20893113381727207,
                        0.95599691160661,
                        0.45637992070056277,
                        0.06675863002821053,
                        -0.2215212173101487,
                        1.0766798325950258,
                        -0.3962226058193524,
                        0.3483017335440797,
                        -0.0021234656175804223,
                        0.11238742208193886,
                        0.3102078351837088,
                        -0.8716471820685338,
                        0.3861681657219259,
                        0.43628762398623244,
                        -0.3651366727136481,
                        -0.21069147387831708,
                        0.47551034062275593,
                        -0.7071537320908337,
                        -0.042489486206611415,
                        -0.21461005930158347,
                        1.0792820510345198,
                        0.19122540936253263,
                        0.8716543359623862,
                        -0.1676348879957178,
                        -0.7214226695385313,
                        -0.15436757210941254,
                        -0.3974063825701226,
                        0.1676011182579339,
                        -0.9098985077520316,
                        -0.1716618321926878,
                        0.2757992806918738,
                        -0.28811124610419675,
                        0.5767627376888643,
                        -0.4965089752910485,
                        -0.2200428362125637,
                        -0.12022321190008967,
                        0.41030044269764826,
                        1.0371579586920745,
                        0.005113286634875355,
                        0.5352544670619144,
                        -0.08717175835739796,
                        -0.30989020003695633,
                        0.38722784654361636,
                        -0.25941571074892666,
                        -0.2765447406028621,
                        -0.7259966999362171,
                        0.5188763001738821,
                        -0.007236899751981829,
                        0.3341593081173279,
                        0.11013417360964102,
                        0.32283685730947087
                    ]
                },
                {
                    "bias": 0.6168755160442505,
                    "weights": [
                        0.12658788500314266,
                        -0.7750285473808707,
                        -0.7383354694878161,
                        0.48114750373371573,
                        -0.8055987666799242,
                        0.2507211952817775,
                        -0.5183440387847427,
                        -0.5953969289956613,
                        -0.42551016589523527,
                        -0.09561775646177165,
                        -0.5531722095726794,
                        -0.1982963622239861,
                        0.2790576734956363,
                        -0.1612603074863238,
                        0.11154695294092562,
                        -0.8342020587699449,
                        0.1417622276942767,
                        -0.3036792242701353,
                        -0.2568366109872104,
                        0.002857931296273153,
                        0.5664429995012157,
                        -0.5244999178325478,
                        -0.4743325119060272,
                        -0.2296544260168899,
                        -0.1686380086653261,
                        -0.22091941403512094,
                        -0.06705751889490083,
                        0.12188101176959712,
                        -0.29461289803745205,
                        0.4471071308447221,
                        -0.3392722084568871,
                        -0.7063437684410341,
                        0.09358645445340466,
                        0.4769254868248256,
                        0.16273947059292393,
                        0.32321194955228766,
                        0.2976956136259165,
                        -1.0288073901625723,
                        0.3421591924486191,
                        1.3252414035996436,
                        0.2165922196778806,
                        -0.6679620285570166,
                        -0.9260256525691225,
                        -0.2104705476476798,
                        -0.37620724354810525,
                        0.11709162787657634,
                        0.42568341403773835,
                        0.7273930162504193,
                        0.29529926787104616,
                        -0.8136012859958813,
                        0.11075897019052408,
                        -0.24087644522639107,
                        -0.7022173765427228,
                        -0.5513720024467686,
                        -0.33728070401835675,
                        -0.41114361507847397,
                        -0.22499088674645779,
                        -0.8265942852251135,
                        -0.31020715698307566,
                        -0.6551213854008067,
                        0.5958796627543649,
                        0.6762977780362305,
                        -0.2022443796190732,
                        0.6078092071464659
                    ]
                },
                {
                    "bias": -0.10199810903437179,
                    "weights": [
                        -0.39095641443564794,
                        -0.4729549281732843,
                        -0.31927515751364977,
                        -1.4220181942831698,
                        0.2602812594567604,
                        0.9328000691248708,
                        -0.4826912294497143,
                        -0.09973284889694459,
                        0.5028958684514487,
                        -0.2322907758036996,
                        1.6473694121961242,
                        -0.016462383580436564,
                        -0.6262402716183559,
                        0.9921961409109775,
                        -0.9518705117449633,
                        0.5904590264049911,
                        0.5264714486939874,
                        0.018771247139667102,
                        0.6151199764920938,
                        -0.20832075122777569,
                        -0.6096829848210751,
                        0.5179224748879544,
                        1.4992902948450197,
                        0.08959314752148984,
                        0.4334414501328852,
                        -1.111185699018395,
                        -0.2886097093405218,
                        0.7091607858264465,
                        0.3513118124399715,
                        -0.5643998718497139,
                        0.6750025689353479,
                        -1.1301866258006779,
                        -0.23452224781355002,
                        0.06527378994912852,
                        0.127536805745734,
                        0.0020439400498808297,
                        1.0694055890574985,
                        0.18437792108956388,
                        0.00863707117761911,
                        0.36297884643042333,
                        0.6233414550299144,
                        0.3458958003542584,
                        -0.6766091647220128,
                        0.05444262098379277,
                        0.08795808612609557,
                        0.023682683975073116,
                        -0.2547886871181063,
                        -0.08585479615680386,
                        -0.8237329883668095,
                        -0.27900144647481284,
                        0.6469172080128456,
                        0.859245915488858,
                        0.26610169979961434,
                        -0.10581503876748632,
                        -0.11025818263156824,
                        -0.11882434725083757,
                        0.4295465642303572,
                        0.12213144543400666,
                        -0.14108966547793847,
                        -0.7818422889899868,
                        1.1064079383618215,
                        -0.24310979192451146,
                        0.12873679630431767,
                        -0.3030868405826053
                    ]
                },
                {
                    "bias": 0.2568233768852752,
                    "weights": [
                        0.315390954209242,
                        -0.9944559153180306,
                        0.09947673943157942,
                        -0.10395967303023794,
                        0.246663375406289,
                        -0.38016527104092535,
                        -0.3837290569596158,
                        -0.9046012901195746,
                        0.5848068425397379,
                        -0.7691894770937164,
                        0.013990010602112024,
                        0.09581903126868219,
                        0.33893049476475207,
                        -0.3735055553866026,
                        -0.09018978682174467,
                        0.5823868387967336,
                        -0.7058367743191368,
                        0.6970622030216059,
                        -0.3072682498379632,
                        -0.11027760292441836,
                        0.2947969274151171,
                        -1.7662671687215719,
                        0.6224827417576534,
                        0.11510267195215285,
                        -0.8470043953156959,
                        0.021859628994702382,
                        0.4168595207398678,
                        -0.195184011647287,
                        0.20092217923119293,
                        0.7984738348897128,
                        -0.19970380583139752,
                        0.8042821866517333,
                        0.3062694423764914,
                        -0.5004912733548338,
                        0.12441984513536819,
                        -0.4549911991252174,
                        -0.2649864162182062,
                        -0.4087745517976381,
                        0.96590970397767,
                        -0.47123429272991724,
                        -0.4374258218183746,
                        0.08005024911583628,
                        0.977812800615131,
                        -0.21399185616455196,
                        -0.2472568459803936,
                        -0.06054176704304359,
                        -0.4861102922590225,
                        -0.3798797411143252,
                        0.15253037128499297,
                        -0.14791312446061441,
                        -0.8786934710613502,
                        -0.19752299984988309,
                        -0.56461317844095,
                        0.25235194953863516,
                        0.4671547516583755,
                        0.7199007093611143,
                        -0.18765755878316476,
                        -0.5729615597677544,
                        -0.30312188472158813,
                        -0.13509118837402148,
                        -1.2001878903848646,
                        -0.2102619137116137,
                        -0.07822908074246193,
                        0.11065913394181595
                    ]
                },
                {
                    "bias": -0.15814878012269462,
                    "weights": [
                        0.6448692745976474,
                        -0.24044063335585816,
                        -0.44617697710344617,
                        -0.13818773870715279,
                        -0.11312313209973784,
                        0.006321335732328737,
                        0.7308584453493481,
                        0.6704748981453841,
                        -0.3549614160769473,
                        -0.1582770126375964,
                        1.4442052204225182,
                        -0.38693000165446556,
                        0.016855279147615698,
                        -0.39865821571523163,
                        0.14904900829799306,
                        -0.18066448683403188,
                        -0.8660607813870488,
                        0.3822824403403358,
                        0.06927233850853583,
                        -0.343790419525293,
                        -0.13861240255170298,
                        -0.25097397479274175,
                        -0.08109450626816617,
                        0.6933985355917539,
                        0.5478147780073912,
                        0.4804079300808759,
                        -0.22369327486844767,
                        0.527378104159914,
                        0.3999797304569549,
                        -0.07184573471563538,
                        -0.4216958327660508,
                        0.593008011999142,
                        -0.8613213819680918,
                        -0.3398551472261659,
                        -0.799755529603319,
                        -0.9892193832342866,
                        -0.8535112547553624,
                        -0.41113196649432826,
                        0.35144446906966864,
                        -0.1716977318256303,
                        -0.4555947215615054,
                        0.748033127152542,
                        -0.38183990836407566,
                        0.6766784713470322,
                        0.06302868663365974,
                        0.7264573780926259,
                        -0.16788340776612598,
                        0.36750579929184934,
                        0.6629408274893063,
                        0.6480945628984449,
                        -0.7087709437351171,
                        -0.625859712822044,
                        -0.34932292675230187,
                        0.8550082827014759,
                        -0.09576539522902766,
                        -0.46518876770109996,
                        0.21345473573631177,
                        0.0916338163008121,
                        -0.7657544240115873,
                        -0.20772359956302566,
                        -0.3920150097615519,
                        0.4433641766576904,
                        0.4785900002557827,
                        -1.0920496325470426
                    ]
                },
                {
                    "bias": 0.6146053968630143,
                    "weights": [
                        0.1513763480418664,
                        0.9860166062559292,
                        -0.00477775726485305,
                        1.066654965462801,
                        -0.03738406342816653,
                        -0.28014063363610475,
                        -0.4291989226795697,
                        0.4303317918076963,
                        -1.323901286610082,
                        0.028432992676963892,
                        -0.874742720609897,
                        -0.563535332860648,
                        0.1611204489757219,
                        0.17700666972266896,
                        0.698969088912357,
                        -0.5273477092065574,
                        0.5310184783275274,
                        -0.00449223408321256,
                        -0.8000006464616616,
                        -1.701612753043886,
                        0.05537222318748558,
                        -0.30476453514437696,
                        0.7613666257250374,
                        -0.6484209951117061,
                        0.10438978392526094,
                        0.2964907963664501,
                        -0.2958437986268271,
                        0.14876301396935607,
                        0.6625347378891275,
                        -0.01464812678182903,
                        0.13395778648249346,
                        -0.42683090640229904,
                        0.25165521139426594,
                        -0.08395388325357948,
                        -0.44697258160005077,
                        -0.500446741563884,
                        -1.1619346108361321,
                        0.6820162327861312,
                        -0.17228552307208306,
                        0.24253464157211235,
                        0.2506167011653657,
                        -0.6810593765534954,
                        -0.2827769788592134,
                        -1.2992314975287877,
                        -0.11473981504017206,
                        -0.1997374205396264,
                        0.11641419556577426,
                        0.6171247871406924,
                        -0.949196505104669,
                        -0.5878581944187115,
                        -0.29744893815177725,
                        -0.29865803660039597,
                        1.209110236043159,
                        0.36465169592913826,
                        0.042977877112410884,
                        -0.2662499859656396,
                        0.07798166353943853,
                        -1.2245191940695594,
                        0.7389150604144226,
                        -0.2929322125255166,
                        -0.5527202195107123,
                        -0.24396550926630908,
                        0.30909781365930206,
                        -0.719769929856929
                    ]
                },
                {
                    "bias": -0.7209811833287465,
                    "weights": [
                        -0.16757758232544365,
                        0.6857215105609438,
                        0.9722778905605841,
                        0.3645881468406341,
                        -0.09791274373376732,
                        -0.299965571501994,
                        -0.02021364026012082,
                        -0.4325930286459045,
                        0.9360063304902104,
                        -0.2411686947787898,
